concept:coach -0.123886 0.0477016 0.517474 0.154645 0.32559 0.387546 -0.0695706 -0.128316 0.160598 -0.12471 -0.301923 0.111823 0.267292 -0.0886476 -0.15205 0.00786813 -0.18089 -0.213724 0.18174 0.0966372 -0.325503 -0.38887 -0.0870733 0.139001 0.111214 -0.0493471 -0.229199 -0.169722 -0.304701 -0.196053 -0.395242 -0.0806847 -0.0459213 -0.206688 0.140999 0.0758763 0.0243267 0.257325 0.147144 0.267676 -0.106181 0.161307 0.203058 0.264916 0.0740576 -0.115708 -0.0442661 0.17542 -0.0954173 0.177474 -0.33539 -0.0945286 0.219047 -0.145239 -0.603759 -0.0603066 0.736105 -0.153961 0.00557804 0.221745 0.295844 -0.229789 -0.381018 -0.0414714 -0.132129 -0.64787 0.00788962 0.359804 0.187811 -0.0150268 0.0790365 0.010975 -0.0678604 0.189121 0.199108 -0.121403 0.229443 -0.13469 -0.0783952 0.21391 -0.35802 0.210759 -0.0441125 -0.00663498 -0.278969 -0.0513023 -0.195615 -0.113839 0.211039 -0.209537 0.0646186 0.137051 -0.0127092 -0.167969 0.347908 0.118526 -0.544419 -0.106747 0.075342 0.0809587
concept:musicfestival 0.0539369 0.215968 0.150829 -0.168284 -0.237245 -0.139396 -0.0656339 0.199072 0.408495 0.255757 -0.173562 -0.367445 0.0325205 0.0956627 0.11613 -0.169236 -0.157927 -0.149915 -0.133562 -0.156194 0.0174515 -0.238918 0.0235518 0.0898987 -0.185292 -0.327709 0.209518 0.171741 0.594066 -0.0590625 0.0916833 -0.320515 0.213798 0.303582 -0.245128 0.0977918 0.0352093 0.00954622 -0.0535659 -0.26545 0.028797 0.343506 -0.387137 -0.270783 0.268599 -0.0451073 -0.228444 -0.0757694 -0.163292 0.00172205 -0.00208555 0.148652 0.184434 -0.052783 0.466486 -0.290566 0.609889 0.00834295 -0.0481173 0.0987082 -0.299547 0.346273 0.038148 -0.383382 0.13479 0.0252918 -0.12096 0.245677 0.120727 0.214908 0.0521431 -0.00887094 -0.279258 0.207458 0.00946838 -0.202135 0.0800058 0.0197388 -0.107054 -0.0488873 -0.346959 -0.0761587 -0.429342 0.434648 0.437723 0.00198034 0.00705436 -0.114668 -0.0744338 -0.303267 -0.544118 0.267346 0.169904 0.141948 -0.186568 -0.180123 0.334463 0.3672 0.0190314 -0.443035
concept:book -0.163942 -0.0948343 -0.391289 0.179498 0.281542 -0.335835 -0.358532 0.0963104 0.0150027 -0.0246407 -0.0810955 -0.505146 -0.101483 -0.266807 0.525393 -0.179041 0.189281 0.0302022 0.0827386 0.0383819 -0.327904 0.365335 0.45357 -0.154631 0.0196634 0.0941795 -0.0177748 -0.00355161 -0.211989 0.0697577 -0.0409517 0.09056 -0.0232112 -0.132954 -0.190998 0.388829 -0.220379 -0.337195 -0.140129 0.127867 -0.270087 0.121185 0.188897 0.443517 0.323678 0.0055578 0.392385 -0.659177 0.057533 -0.0947322 0.19096 -0.0663074 0.182665 -0.241896 0.372444 0.0623593 -0.074476 -0.227739 0.0838426 -0.283476 -0.0609299 -0.233626 0.0183438 0.148477 -0.0203627 0.379645 -0.315908 -0.0178548 0.0831405 -0.319314 -0.34366 0.374707 -0.190089 -0.337725 -0.501688 0.333207 0.455749 0.415825 0.216623 -0.398349 -0.477321 0.00289008 -0.200786 0.251829 0.205662 -0.143773 0.179281 0.0464305 0.0378818 -0.369656 0.253387 0.376729 -0.0923578 -0.174764 -0.531084 -0.328486 -0.237878 0.0473724 0.240333 0.00625082
concept:professor -0.0826198 -0.245905 0.295433 0.157892 0.410714 0.284178 0.324243 -0.255541 0.218666 0.312682 -0.0737569 -0.0950229 0.29442 -0.137828 0.0261742 0.221892 0.0156118 -0.0521277 0.138093 -0.1471 -0.143955 -0.0757077 0.363172 0.168543 0.465295 0.164211 -0.208503 -0.0527212 0.0347924 -0.132513 -0.187387 -0.0530063 0.0266913 0.0331808 0.0943892 0.206117 0.0683573 0.407355 0.293807 -0.0450687 -0.0496881 0.159869 0.197512 0.00175425 -0.0100734 0.109529 0.112679 0.167899 0.683245 0.236853 0.451206 -0.292732 -0.091044 -0.0311394 0.39273 -0.163786 -0.0996352 -0.250441 -0.123588 0.142093 0.25343 -0.078638 -0.127592 -0.0195265 0.0385503 -0.0040808 -0.0228211 0.573189 0.133036 -0.186101 0.0496792 0.025149 0.0732604 0.161959 0.00475739 -0.102669 -0.620234 -0.187955 -0.0398138 -0.0521246 -0.197734 0.172625 -0.0458079 0.118828 0.030622 -0.227582 -0.130816 -0.443461 -0.149513 -0.315596 0.322933 -0.0565604 -0.126611 -0.559018 -0.00517798 -0.424637 -0.360123 -0.148647 -0.292161 -0.111176
concept:dateliteral -0.160732 -0.0773834 0.10846 0.139485 -0.162774 0.0747742 -0.0480742 -0.0588331 0.202529 -0.219558 0.209214 -0.096048 0.350595 0.12001 0.157072 -0.0941199 0.0309387 0.0116036 0.0822431 -0.507058 -0.208504 -0.365987 0.669483 -0.225725 0.106587 -0.0941536 -0.180143 0.258513 0.187 0.000570551 0.165884 -0.0873862 0.052029 0.411934 -0.0651743 -0.228437 0.518123 -0.154008 0.0657466 -0.149484 -0.182286 -0.649174 -0.591438 -0.204096 0.302257 0.488964 -0.206626 0.200651 0.277594 0.499883 0.405857 -0.423624 0.559168 -0.0477947 0.173456 0.107908 0.402054 0.140053 -0.20386 0.138749 -0.238769 0.482911 -0.686468 -0.423954 -0.257272 -0.300451 -0.0129452 -0.223904 0.0224082 0.325761 0.246346 0.00488858 -0.209005 -0.121491 0.0209291 -0.371262 0.0394811 -0.156783 -0.390053 0.112423 -0.213387 0.074814 0.00438074 0.0263319 0.229898 0.0647892 -0.139008 -0.538018 0.123406 0.39178 -0.26247 -0.0711309 0.119299 0.286257 -0.292289 0.00299941 -0.00827376 0.468834 -0.502431 -0.372792
concept:mountainrange -0.11286 -0.296238 0.321766 -0.26914 -0.0326723 0.0768727 -0.0481344 -0.0114672 -0.210523 -0.498702 -0.1469 -0.448517 0.436333 0.344915 0.0361303 0.288521 -0.147887 -0.0755756 0.447331 -0.379662 0.022494 0.0438322 -4.73658e-06 -0.0626053 0.218771 0.117352 0.267659 0.254745 -0.0970701 0.0241613 0.128979 0.309233 0.152718 -0.184144 -0.326437 -0.128008 0.10971 -0.153 0.0823666 0.185399 0.101365 -0.257086 0.54934 -0.0244337 -0.229514 -0.140693 -0.273294 0.176271 -0.127957 0.0778029 -0.0657126 -0.436867 0.176826 0.00416791 -0.280443 0.453252 -0.0808192 -0.093528 0.289983 -0.214697 -0.064966 0.024892 -0.0212609 0.277866 0.709802 0.41573 -0.122415 0.185269 0.0251113 -0.26572 -0.50387 0.298286 -0.0863563 0.142633 0.0765318 -0.302057 -0.182921 -0.412914 -0.206941 -0.141886 0.160507 0.0426737 -0.32152 0.48951 -0.00138804 -0.228536 0.250004 -0.15982 -0.176062 0.295875 -0.26269 0.248195 0.0356743 -0.335183 -0.229996 0.0280755 -0.334274 -0.317482 0.000375495 -0.0707831
concept:wine -0.0467614 0.271019 -0.202238 -0.20391 -0.574349 -0.219935 -0.0328134 0.128922 -0.259341 0.388494 -0.0758244 -0.458327 0.116825 -0.103077 -0.0810439 0.18241 0.228357 0.0325652 -0.202945 -0.435369 0.291118 -0.626175 0.355482 0.275972 0.156232 -0.193702 0.119842 -0.266441 -0.149171 -0.355506 0.115926 0.195661 0.00254842 0.594095 -0.307173 -0.0662282 -0.0346581 0.0260254 -0.0224401 -0.111225 -0.320961 0.315725 -0.0589506 -0.0843549 0.00420593 0.194587 0.0723478 0.0867754 0.152304 0.277214 0.00177084 -0.673143 0.523631 -0.0223959 -0.308129 -0.00118476 0.300704 0.0610567 0.419064 0.296086 -0.154988 0.0958917 -0.231993 -0.100058 0.31696 0.197211 0.0570033 0.0547203 -0.194543 -0.0736268 -0.0479465 0.268779 -0.0739407 0.00105282 -0.128859 -0.445989 -0.20072 -0.375227 -0.1004 -0.06745 0.0296843 -0.177285 -0.154632 0.525987 -0.0179447 -0.392348 0.396128 0.0118855 -0.229668 -0.115309 -0.0321958 0.117451 -0.0926681 0.272927 -0.0760782 -0.0478582 0.208997 -0.149578 0.0590658 0.116812
concept:flooritem 0.0754007 0.00120263 0.14344 -0.142982 0.157704 0.35519 0.28992 -0.19252 0.415571 -0.0399041 -0.219947 -0.435239 0.0197568 0.242013 -0.237737 0.213879 0.472568 -0.175304 0.374427 0.195428 0.407162 -0.203994 -0.0375844 -0.41713 0.0805385 -0.279875 -0.223882 0.362339 0.583036 0.0950547 0.241528 -0.241379 0.338785 0.189555 0.470803 0.235361 -0.0808742 -0.00353768 0.0942501 0.0253839 -0.2397 0.166866 -0.111897 -0.29351 -0.0720488 0.620916 0.343327 0.104332 0.0726047 0.0899468 -0.0104725 -0.276367 -0.195596 0.474802 -0.437436 0.132258 0.126427 0.217448 0.0237214 -0.247695 0.353266 0.315447 -0.540271 -0.250629 -0.408331 0.142143 -0.151762 0.25982 -0.239853 -0.0352626 -0.011473 -0.15432 0.198583 -0.337027 0.0584142 0.0237299 0.0857379 0.128107 0.181343 -0.498271 -0.0987974 -0.386591 -0.235638 0.103089 0.472997 -0.111787 -0.41964 0.0256456 -0.161655 0.359603 -0.153979 0.283423 -0.205456 -0.409994 0.291696 0.37047 -0.356532 0.164655 -0.108758 -0.514507
concept:clothing 0.541218 -0.553485 -0.477086 -0.339697 -0.461631 -0.09859 0.50494 -0.228603 -0.193827 0.45127 -0.369051 -0.522313 0.266108 0.102201 0.377029 -0.416562 0.0652621 -0.30839 0.292975 0.310094 0.482282 -0.142992 0.153891 -0.319788 0.484842 -0.601216 0.340612 0.293052 0.105019 0.264084 -0.0377598 0.0273341 -0.176538 0.433438 0.148676 0.399081 -0.298978 0.226941 -0.129247 -0.375929 0.0446301 0.121462 0.403621 -0.617381 -0.183765 -0.16626 0.391283 0.345428 -0.137668 -0.225316 -0.207339 -0.00270158 -0.221803 0.292065 0.509905 0.366153 -0.586607 0.317077 -0.228583 -0.378292 0.324956 0.354732 0.372799 -0.0509402 0.628576 -0.107194 0.15786 0.17482 0.369229 0.185275 -0.354866 0.234534 -0.491042 0.306336 0.0353972 0.228466 -0.357555 0.270629 0.361193 -0.216993 -0.151543 0.022938 -0.0215982 -0.177832 -0.385403 -0.407908 0.0260967 -0.541697 -0.375785 0.129762 -0.166478 -0.647535 -0.315556 -0.352646 0.356382 0.447814 -0.302815 -0.0890667 -0.112143 -0.15743
concept:mlalgorithm 0.368159 0.269553 0.301208 -0.374459 -0.0677314 0.477114 0.447489 0.00889502 -0.180574 0.0709841 0.126922 -0.0109695 -0.378726 0.426116 -0.234131 -0.0434934 0.103866 -0.216939 -0.0800442 0.096108 0.249807 -0.101291 -0.239258 0.42497 0.336022 -0.192788 -0.420787 0.224614 -0.330817 -0.11065 -0.2283 -0.16829 0.329072 -0.0504878 -0.367437 0.0564748 0.61365 0.116713 0.299634 -0.192385 0.0505493 0.00711006 -0.302535 0.173555 0.318974 -0.0485441 0.24404 -0.295667 0.272801 0.00164857 0.0533649 -0.304754 0.499803 0.227341 -0.0597428 0.314897 0.595746 0.103954 -0.0893222 -0.221424 -0.481391 0.367354 -0.186142 -0.0891996 -0.439785 -0.120499 -0.229786 -0.397153 -0.0741665 -0.0582136 -0.138009 -0.0506973 -0.0932711 -0.387781 0.391126 -0.460796 -0.0401542 -0.428785 0.229324 -0.255596 -0.00354578 0.0320796 0.257761 -0.24716 -0.163058 0.226704 0.248718 -0.528483 0.143633 0.147558 -0.407263 -0.292566 -0.201336 -0.476611 0.284144 0.387152 -0.252066 -0.0595052 -0.180307 0.0355932
concept:drug 0.193155 0.149308 -0.263622 -0.0840269 -0.124391 -0.207036 -0.177537 0.0228443 -0.128546 -0.234257 -0.470439 0.189275 0.299534 -0.0683815 -0.101215 0.201076 0.250924 -0.0912592 -0.300382 0.0125749 0.288618 0.149287 -0.0936758 -0.23562 -0.089224 0.38503 0.288271 -0.187344 -0.343515 -0.0393526 -0.157764 -0.216908 -0.206944 -0.207554 0.272751 0.167989 -0.136342 0.256397 -0.127688 0.280798 -0.254087 0.299292 0.176848 -0.335862 -0.106041 0.30763 -0.147144 0.114635 0.2234 0.558438 0.21415 -0.131247 -0.0724034 0.431709 -0.253589 -0.000452832 -0.185561 0.559775 0.143276 -0.0581249 -0.287218 0.264699 0.0748841 0.0637238 -0.0632663 -0.245383 -0.0560041 0.222741 0.173201 0.193582 0.0651015 0.00886665 0.203016 -0.0912888 -0.334246 -0.125424 -0.172913 0.32084 0.088284 -0.399537 0.153521 0.0101377 0.280437 -0.135851 -0.251584 0.384859 0.204029 0.126808 0.245628 -0.216623 0.132054 0.350579 -0.0985517 0.244703 0.348612 -0.0718142 0.0729837 -0.406563 -0.707631 -0.149924
concept:musicgenre -0.0245211 -0.26807 0.3527 0.165131 -0.601956 -0.122637 -0.450364 0.587032 0.062585 0.179176 0.122396 0.215987 -0.421958 0.277237 0.0530773 -0.0429875 -0.1614 -0.223605 -0.260712 -0.233736 -0.38857 -0.325239 0.0636575 0.251129 -0.251627 -0.526346 0.437581 -0.190101 0.281237 -0.126487 0.557816 0.0250349 0.0483061 0.0160793 0.109991 0.150654 0.582415 -0.153128 0.197365 0.0806658 -0.318476 0.320434 -0.465255 -0.230252 0.518671 0.0985716 -0.232327 0.124406 -0.222884 0.231697 -0.0288764 -0.217808 0.36715 0.109004 0.0634392 0.0753055 0.0509051 0.166107 -0.146113 -0.206937 0.0717916 0.528723 -0.151824 -0.291211 -0.193549 -0.298998 0.364766 0.227101 -0.0106794 -0.401044 -0.421879 0.175931 -0.541288 0.367506 0.557457 -0.0541633 -0.290088 -0.136881 -0.201554 0.119238 0.326026 -0.326484 -0.228366 -0.570933 -0.15363 0.314508 0.0329744 -0.461827 0.189324 0.433938 -0.519311 0.10666 0.180033 0.547939 -0.0516571 -0.184187 -0.224387 -0.194382 -0.346669 -0.216505
concept:parlourgame -0.0979264 -0.0707277 -0.299667 -0.37414 0.20279 0.134875 0.0570148 -0.0875634 0.169574 -0.193803 0.0929574 -0.314541 -0.207834 -0.0993586 0.156287 -0.234193 0.0591232 0.431903 -0.305147 0.168537 -0.252114 0.361408 -0.0372376 -0.134078 0.255584 0.354411 -0.0973353 0.416452 -0.290898 0.313918 0.180849 0.298999 0.129824 -0.0219748 -0.0702493 0.317599 -0.14096 -0.249583 0.0796742 -0.28121 0.312755 0.0387447 0.281392 -0.344827 -0.0719181 -0.00105333 0.307618 -0.386741 0.140656 -0.0147525 -0.265456 -0.0904308 -0.406741 0.119821 -0.15756 0.242684 -0.0640379 -0.352132 -0.10992 -0.273245 0.463295 -0.0691897 0.154306 -0.000522986 -0.232473 -0.480007 0.401772 -0.324519 -0.373924 -0.223325 -0.485816 0.0800479 -0.542469 -0.40974 -0.167597 -0.357703 0.249095 0.0998526 0.215924 -0.163853 -0.025771 -0.0858925 -0.258382 -0.161041 -0.0828644 0.192076 -0.138355 -0.419642 -0.0258967 -0.165127 0.189792 0.249166 0.284625 0.366772 0.100785 0.61561 -0.138289 0.0676822 -0.50075 0.366353
concept:website -0.0136999 0.128959 0.110704 -0.370092 -0.100347 0.0688788 -0.0148752 -0.310196 -0.108907 -0.125298 -0.255487 0.0582466 0.160604 0.352281 0.119929 -0.328325 -0.137742 0.133157 0.702026 -0.0341385 -0.223477 0.0964455 -0.21934 0.152913 -0.204227 0.116647 -0.0827915 0.124744 0.0662536 0.0850792 -0.134352 -0.599947 -0.00711336 -0.0759104 -0.344313 -0.140571 -0.11519 0.225401 0.0960234 0.225425 0.204741 -0.162626 -0.293904 -0.0950751 0.226653 -0.09904 -0.142264 0.227481 -0.226267 -0.101097 0.0725908 0.0288752 -0.0974162 -0.176136 0.13795 -0.182557 0.0869047 -0.137777 0.187881 -0.265464 -0.0918161 -0.23779 -0.0387945 -0.073115 -0.402934 0.0173007 0.000729246 0.221491 0.102627 0.158973 -0.00121566 -0.0407777 0.086825 -0.403265 -0.283165 -0.0702486 -0.243068 0.315272 -0.107397 0.145691 0.103617 0.19063 0.336406 0.031294 -0.11297 0.156465 0.147948 0.0478114 -0.178343 -0.0239359 -0.311982 0.223017 -0.018679 0.166048 -0.0769542 -0.0819591 0.00682275 -0.199539 -0.0322397 -0.0477261
concept:eventoutcome 0.0173575 0.129402 -0.512667 -0.252354 0.14294 0.0387261 0.352515 0.238703 0.21205 0.0143036 0.32781 -0.0284348 -0.223805 0.0166932 -0.052773 0.162755 0.24773 -0.395092 -0.205966 0.185395 -0.135276 0.200102 -0.0296249 -0.0962124 -0.0105594 0.0432034 -0.0153366 -0.193125 -0.0965662 -0.0521 0.184094 0.000396087 0.283704 0.312895 -0.208116 -0.656558 -0.154928 -0.155804 0.189579 -0.235399 -0.220629 -0.0111246 0.0513459 -0.121338 0.147196 -0.0688085 -0.244265 -0.246277 0.761891 -0.0447563 -0.0150431 0.20395 -0.153581 -0.0398586 0.402386 -0.24306 -0.112385 0.183909 0.670006 0.361997 -0.220978 0.00655807 0.0277953 -0.158134 0.135102 -0.0239435 0.0820219 -0.0694452 -0.138629 -0.0209883 0.0622167 0.124432 0.23516 -0.149465 -0.0616408 -0.0069432 0.146127 0.104117 0.115613 -0.0689746 -0.168337 -0.165584 0.423654 0.190054 0.0944053 0.0875668 0.376164 0.102268 0.147927 -0.0175824 -0.0733691 0.0747672 0.250469 -0.263599 0.238884 -0.0517611 0.129888 0.233766 0.0371175 0.0246089
concept:planet -0.00449799 -0.479181 -0.319703 -0.312476 0.177544 0.570725 -0.368547 -0.0652527 0.251982 0.048566 -0.0412046 -0.233122 -0.513888 -0.0174461 -0.135161 0.0691789 -0.292988 0.113017 0.29139 -0.450397 -0.474745 -0.00963492 0.157296 0.165361 -0.0255298 0.409586 -0.156998 0.587147 -0.0646971 -0.0866962 -0.134348 -0.150673 0.0647785 0.283534 -0.466243 -0.143166 0.134561 -0.473933 0.000411468 0.224123 0.126317 -0.227796 0.117152 -0.0800076 0.676789 0.386892 -0.151878 0.161738 -0.121085 0.0484621 -0.00466602 0.0485881 0.626463 0.0889497 -0.182485 -0.452515 0.155636 0.0281867 -0.0475096 0.198456 -0.0966624 0.123285 -0.128727 0.198678 0.216952 0.10888 0.0495151 0.0238142 0.287496 -0.352628 -0.467663 0.150623 0.0840647 0.235755 0.148721 0.0444681 -0.0730252 0.322912 -0.295709 0.0943898 -0.0319607 -0.0349225 -0.313105 0.214045 0.245566 0.0679417 0.143356 -0.0313508 0.396795 -0.0219481 -0.397229 0.229298 -0.330588 -0.0180373 -0.184956 -0.0587355 -0.156185 -0.276673 -0.0784788 -0.259362
concept:mammal 0.206535 -0.0366731 -0.241203 0.00241402 -0.588485 -0.195924 -0.301076 0.0782652 -0.171676 -0.339266 -0.262752 -0.306154 0.0508718 0.291887 0.253688 0.463894 -0.271753 -0.375479 -0.184465 0.0762022 -0.12886 0.0139573 -0.138052 0.315849 -0.0211561 -0.3083 -0.0595709 0.202474 0.178196 -0.51661 -0.144881 0.219425 -0.216964 0.080109 0.0963991 0.134918 -0.0918538 -0.250814 -0.102562 -0.291996 -0.118827 -0.307036 -0.201141 0.128384 0.0902602 -0.0615713 0.201413 -0.405622 -0.441079 -0.101751 0.357654 0.0358087 0.128979 0.22687 -0.483569 0.102871 0.000282179 -0.113743 -0.059138 -0.189446 0.173813 -0.0934614 -0.147128 0.161101 0.402564 0.149533 -0.339902 -0.26448 0.214607 0.302926 0.359241 0.631591 -0.459876 0.061834 0.664041 -0.272441 0.219215 -0.500229 0.162419 -0.318386 -0.33843 0.251713 0.130629 0.0800117 0.0135664 -0.0791729 0.120651 -0.257792 0.208142 -0.051024 -0.113013 0.428235 -0.239665 0.139198 -0.109298 0.388695 0.300374 -0.409924 0.33188 0.12262
concept:organization 0.0845068 0.195223 -0.0514881 0.42481 -0.237778 0.282481 -0.0523728 0.155824 -0.173819 -0.0862442 -0.0849493 0.119386 0.115117 0.240893 -0.226714 0.231477 -0.100927 0.103856 -0.20061 0.109557 0.218948 -0.0112742 -0.478877 -0.203555 0.00426234 -0.23678 -0.255548 -0.0785666 0.13621 0.0741895 0.169451 -0.00443371 0.145221 -0.126827 -0.0746043 -0.0157501 0.103108 0.123061 -0.372016 0.0594249 -0.0638627 -0.00482764 -0.128295 -0.206448 -0.120164 0.00581366 0.224577 -0.0412505 -0.0606771 -0.0221667 -0.457578 0.139115 -0.088234 -0.613085 0.0109469 -0.0319408 -0.371072 -0.1851 -0.369276 0.0949009 -0.0954707 -0.247032 0.469741 0.189642 -0.0416267 0.200398 0.0365904 0.112009 0.0842108 0.046995 -0.00832869 -0.757359 -0.0549055 0.12237 0.05707 0.291416 -0.190645 -0.0990192 -0.0963243 0.736442 0.127286 0.116567 0.190379 -0.16261 -0.11115 0.160554 0.119995 0.688707 0.0393218 -0.226937 0.17213 -0.133145 -0.0749061 0.117794 -0.249568 0.102654 -0.0680125 -0.0715969 0.463945 0.314014
concept:female -0.162954 0.215423 0.179663 0.0956257 -0.400375 0.468699 -0.101929 -0.254495 -0.086524 0.121389 -0.181241 0.0160409 0.035183 -0.130707 0.142893 0.31604 -0.25225 0.0649577 0.197997 -0.467443 -0.2895 -0.0674539 0.0665885 0.0572913 -0.0734163 -0.00958931 -0.300994 -0.231678 -0.189448 -0.417465 -0.158371 -0.275781 0.0150194 0.325521 0.162519 0.0512499 -0.245509 0.245104 0.565626 -0.0874233 0.0149456 -0.00425939 -0.0946357 0.108001 -0.173073 -0.0395201 0.208877 -0.252118 0.00555224 0.0826227 -0.00892068 0.0231742 -0.301422 -0.30455 0.509069 -0.193068 0.194293 -0.0594216 0.0892384 0.079491 -0.239491 0.262322 -0.311391 0.0176903 0.897493 -0.221326 -0.138911 -0.825644 0.122405 -0.190917 -0.0267122 -0.239111 0.0103763 0.177172 -0.275012 -0.0131786 0.152057 -0.29396 0.539096 0.137686 -0.269777 0.136356 -0.198869 -0.10988 -0.0644377 0.179417 -0.380778 -0.257027 -0.200379 -0.0238724 0.25088 0.0891436 -0.045022 -0.572747 -0.121931 -0.097233 -0.0108373 0.175837 -0.306421 0.164961
concept:vehicle -0.208131 0.162954 0.199494 -0.0490779 -0.0727103 -0.263923 -0.110712 -0.186537 -0.151512 -0.23511 0.0121717 0.22756 0.00670791 0.110324 0.0686925 -0.000693141 -0.156746 -0.229242 -0.123528 0.158162 0.419194 0.116871 -0.00985582 -0.478791 0.0348005 0.276959 0.157697 -0.0715813 -0.186504 -0.0532377 -0.215096 -0.212759 -0.183087 0.062512 0.457612 0.199233 0.0447963 0.177645 -0.159938 0.274737 -0.21708 -0.139578 0.234445 -0.193789 -0.275239 0.0253807 0.152065 0.22435 -0.173978 -0.0308789 0.504424 -0.54219 -0.160882 0.111096 -0.292167 0.0297153 -0.284545 0.207966 -0.302948 0.250665 -0.0434452 0.328162 -0.0367887 -0.664509 0.408958 -0.0471593 -0.0784205 0.163312 0.284744 0.0195575 0.21262 -0.0580159 0.144965 0.135046 -0.233942 -0.410355 -0.112163 0.159164 0.198382 -0.244815 -0.0504636 0.132467 0.400818 -0.25266 0.252792 -0.431964 0.153401 -0.00371488 0.0431187 0.0876656 0.33416 0.238308 -0.139253 -0.273565 -0.101136 -0.114414 0.0266835 -0.0326148 0.106485 -0.448267
concept:event 0.163682 0.104266 -0.0488538 0.00612128 0.439494 -0.260361 0.426469 0.0655586 0.455953 -0.0324167 0.374563 -0.0207173 -0.396582 0.0400071 -0.094813 -0.271926 0.0690667 -0.232119 -0.173257 0.00352555 -0.126514 -0.0310554 -0.238001 -0.26968 -0.100507 0.133963 0.126769 0.0232161 -0.0895678 0.430482 0.136954 0.042998 0.284526 0.0293248 -0.347082 0.0740764 -0.0455326 -0.186064 0.0792503 -0.414146 -0.239456 0.0858773 0.102098 -0.143722 0.10827 -0.116423 -0.456248 -0.0400286 -0.035471 -0.255154 0.0193241 0.448013 -0.197272 -0.0538413 0.226026 -0.140171 -0.0112648 0.149411 -0.167159 0.363858 -0.178671 0.0779275 0.221713 -0.221552 0.0376669 -0.0165958 0.0396953 -0.0767997 -0.153732 0.411922 0.0459505 0.198575 0.134156 -0.0751183 -0.0790907 -0.0277534 0.189001 -0.324243 0.00260708 -0.0547967 -0.273147 -0.251046 0.0187161 0.283045 0.0985118 0.0396 0.0646211 0.171984 0.350329 -0.0929188 -0.0281886 -0.031765 0.161904 -0.249223 0.0581593 -0.320287 0.105018 0.280834 0.0249354 0.112118
concept:legume -0.120748 0.030759 -0.14079 -0.366301 -0.172913 0.563964 0.0693833 0.219311 -0.190591 0.207102 -0.431157 0.323842 0.0549172 -0.0867081 0.365011 -0.434694 0.152423 0.299307 0.372878 -0.143252 -0.0116391 -0.17526 0.169404 -0.07073 -0.0694013 0.203246 0.276384 0.0880386 0.506397 -0.424959 -0.00761588 0.110053 0.0966861 0.459988 -0.107519 -0.124255 0.063718 0.340817 -0.111533 -0.391167 -0.28593 0.371065 -0.135548 0.286839 -0.0169468 0.508739 0.147934 0.250956 -0.0279831 0.105967 -0.202501 -0.471714 0.261718 -0.204961 -0.124981 0.318175 0.44201 0.115579 0.0580663 0.21056 0.241853 0.095144 -0.500712 -0.145621 0.570283 -0.076506 0.579978 0.11113 -0.208867 -0.0658311 0.0922029 0.49052 -0.165099 0.131782 0.0977691 -0.489333 0.108548 -0.111953 0.162348 -0.0567368 0.00230437 -0.181284 -0.0289078 -0.175341 -0.184644 -0.562418 -0.0675518 -0.164431 0.406334 0.0595333 0.233171 0.0306892 -0.311513 0.00498915 -0.276778 0.0324996 0.167455 -0.351362 -0.206799 -0.0414775
concept:weatherphenomenon 0.285404 0.177814 -0.138173 -0.216057 0.063724 -0.0888945 0.149553 0.245553 0.357501 0.0618395 0.238811 0.30559 0.0184851 -0.247458 0.232691 0.122006 -0.441966 -0.300184 -0.327006 0.0686287 -0.173248 -0.111876 -0.0202587 -0.312813 -0.254686 -0.209613 0.0727087 0.0146039 -0.273059 0.0472785 -0.108764 -0.0453906 0.372276 0.0991639 -0.340235 0.0663903 -0.128082 -0.151121 0.099293 -0.314741 -0.275471 -0.0463595 0.0869737 -0.162095 0.14489 0.0900344 -0.102993 -0.0278468 -0.0597172 0.0760456 0.136062 -0.0779624 0.0859471 0.0789656 0.137583 -0.189365 -0.0343403 0.0739158 0.0218517 -0.260606 -0.273201 0.403252 -0.0970524 -0.104369 -0.122975 0.0835366 -0.218228 -0.0235368 -0.302879 -0.185889 0.155888 0.202628 -0.563509 -0.231827 -0.169843 0.0539943 -0.613039 -0.0921957 0.081381 0.114657 -0.496833 -0.323951 -0.133532 0.127587 0.0809261 -0.268312 0.118201 0.0635276 0.0986493 0.106534 -0.18951 -0.0723294 0.325131 0.273157 -0.515403 0.0780457 -0.331002 0.359995 -0.255565 0.293936
concept:perceptionevent 0.144131 -0.566764 0.363322 -0.469671 0.101294 -0.176152 -0.308885 0.389705 0.399381 -0.298623 0.303898 0.0652812 -0.272805 0.0915152 -0.136841 -0.102606 0.166632 0.0907169 -0.374208 0.218819 0.39809 0.514522 0.147045 -0.365656 0.299963 -0.138786 0.150738 0.0293276 0.258042 -0.362563 -0.0335509 0.502659 0.48027 -0.241881 -0.371735 0.165347 -0.140009 -0.0907357 0.397663 -0.0984386 0.0290581 0.018762 0.26779 0.422333 0.141242 0.819135 0.273796 0.360663 0.0124495 0.365564 0.175309 -0.145334 0.101865 0.477864 -0.471091 -0.426951 0.0782715 -0.0862515 0.340129 -0.439464 -0.441499 0.162146 0.000452714 -0.134161 -0.037558 0.159393 -0.060118 0.166155 0.172037 -0.343074 0.422691 0.592455 -0.510362 0.190557 -0.264407 0.119599 -0.416384 0.338228 -0.594957 -0.165943 0.0840673 0.242419 -0.198991 0.0269475 0.375305 -0.455982 0.197179 -0.172614 0.409621 0.432869 -0.115217 0.0351389 0.0342231 -0.00936335 -0.659976 -0.240328 0.18622 0.477004 0.0697258 -0.162129
concept:emotion -0.00642383 -0.30748 -0.128043 -0.336815 -0.494768 -0.223234 -0.526481 0.0966294 0.331341 0.661475 -0.349181 0.203765 -0.164239 -0.236649 0.720296 0.328159 0.513115 -0.261319 -0.335585 0.362944 0.349393 0.150234 -0.0277004 0.485873 -0.31216 -0.331667 0.34351 0.0421305 0.0167275 -0.106689 0.0111831 0.432002 0.682815 -0.0640559 0.1149 -0.202997 -0.199994 0.0806096 0.471185 0.449306 0.29601 0.297605 0.216855 -0.0547056 0.196939 -0.114586 0.0256241 -0.661454 0.166931 0.136208 0.428958 0.353174 0.436562 -0.243879 0.218397 -0.261181 0.0593946 -0.232859 0.342912 -0.396875 -0.422431 0.142561 -0.238589 0.157222 -0.304916 0.179451 0.174639 -0.579921 0.304735 0.0654447 0.100858 0.0484198 0.223874 0.0924361 0.23264 -0.359168 -0.516724 -0.363709 -0.305416 -0.0532034 0.0563279 0.229782 0.0831954 0.240011 -0.252511 -0.232425 0.054263 0.220756 -0.155167 0.289546 0.349176 -0.246788 0.562407 0.0618112 -0.00492792 -0.0376207 0.262774 0.230591 -0.373069 -0.213088
concept:bombingevent 0.332279 -0.206077 0.182342 0.0798854 0.0394632 0.0702972 0.151576 0.377153 0.226318 -0.207851 0.138022 0.043952 -0.0493154 -0.125404 0.106899 -0.130961 0.244071 0.0818822 0.194392 -0.00087012 -0.174745 -0.40407 -0.0343349 -0.179878 0.0969685 0.25912 0.104952 -0.13508 -0.106812 0.00822267 0.170175 0.156176 0.305164 -0.042772 -0.253837 0.128311 -0.145927 -0.129533 0.0717193 -0.282645 -0.244075 -0.0947115 -0.384626 -0.229409 -0.0371463 0.0168493 -0.0363791 -0.115073 -0.192118 0.316484 0.589218 0.115395 0.0828791 -0.0455224 0.225357 -0.0631332 0.0665335 0.0321702 -0.174374 0.244463 0.135755 0.287198 0.0655129 -0.245737 0.38735 0.115376 0.15441 0.0841979 -0.0839997 0.228864 -0.0196119 0.300763 0.203864 -0.21272 -0.0351187 -0.233485 0.251972 -0.0837213 -0.155922 -0.0226699 -0.169704 -0.225784 0.0473995 0.245443 0.164062 0.18174 0.0276868 -0.00512696 0.145755 -0.217793 -0.306375 0.291905 0.145765 -0.229028 0.344185 -0.0161023 0.0939005 -0.221151 -0.120181 -0.00456446
concept:highway 0.202545 -0.181657 0.237742 -0.294858 -0.0110229 -0.143411 0.0755507 -0.0684957 0.06643 0.313439 -0.14381 -0.35365 -0.0109295 -0.261672 -0.430899 0.0710617 -0.371538 0.0529382 0.10737 0.0820306 0.150673 0.154606 0.170566 0.234632 -0.183481 0.258024 0.130219 0.130007 0.137621 0.173814 -0.138989 0.193325 0.22475 0.197106 0.119027 -0.0334846 -0.0730463 0.0255129 0.134537 0.197968 -0.0408242 -0.382414 -0.158737 -0.0407713 -0.1658 0.162051 -0.228596 0.109955 0.158503 0.122436 0.0220535 0.00102992 -0.110915 0.185183 0.220343 0.479483 0.219406 0.132731 0.0226242 -0.344617 -0.0331575 -0.246308 -0.145176 0.186087 0.370229 -0.420987 -0.194049 -0.0940716 0.0405608 -0.0528775 -0.208105 0.0975759 0.143642 -0.474566 0.043339 -0.133364 -0.324401 0.158689 0.0515532 0.318888 0.114274 0.104047 0.50916 0.189028 0.16312 -0.655552 0.126862 -0.0736185 -0.191033 -0.0282073 -0.200878 0.22419 -0.0685669 0.37643 -0.299158 0.00236706 -0.149693 -0.0720834 -0.836742 0.0124496
concept:creativework -0.211552 0.166653 -0.446422 0.372889 0.430308 -0.660677 -0.560273 0.211537 -0.0386168 -0.0365402 -0.220279 0.0264921 -0.185396 -0.499767 0.566934 -0.233708 0.280955 0.0887582 0.0772777 -0.0513054 -0.138179 0.561874 0.203738 -0.122995 0.0398553 0.0657293 0.29828 0.0560273 -0.291534 0.085773 -0.0113664 -0.0935064 -0.317214 -0.173602 -0.114566 0.453536 -0.195048 -0.424197 -0.0510447 0.13171 -0.194285 -0.00226661 0.153763 0.726492 0.429447 0.015909 0.439556 -0.588281 0.0308013 -0.234578 0.0314754 -0.137162 0.0632088 -0.25596 0.263083 -0.232568 -0.122976 -0.157681 0.0411934 -0.190063 0.0390306 -0.331028 0.195056 0.14388 0.0175399 0.196074 -0.298536 -0.173018 -0.121135 -0.328061 -0.42979 0.453876 -0.137139 -0.305181 -0.15515 0.514839 0.0653846 0.320485 0.129613 -0.352049 -0.416884 0.0113071 -0.0238646 0.112241 0.444492 -0.216463 0.209712 -0.260255 -0.127224 0.0125946 0.338131 0.457709 0.0923046 -0.181812 -0.211014 -0.375155 -0.355213 0.284125 0.0805917 -0.227834
concept:comedian 0.0381597 -0.185399 0.230158 -0.00519595 -0.355311 -0.283513 -0.314496 -0.0204903 -0.222831 0.75444 -0.0660599 0.0103897 0.123929 -0.180814 0.255749 0.223947 -0.20311 0.0339257 0.288366 -0.271791 0.046074 -0.15154 0.189132 0.121421 -0.355306 -0.0423783 -0.193596 -0.167889 -0.274668 -0.278836 -0.159037 -0.0716511 -0.0160918 -0.304274 0.249077 0.335215 0.403572 -0.359754 0.316485 0.257949 0.0516532 0.162602 0.185084 0.0268931 -0.0245236 0.0859085 0.219105 0.272378 -0.119694 0.492514 -0.0586683 -0.5463 -0.296794 0.0317508 0.106634 0.0652328 0.125555 -0.129529 0.285949 0.0917288 -0.440883 -0.153045 -0.186551 0.0597701 -0.253937 -0.476677 0.086704 -0.0298 -0.201185 -0.193838 -0.318506 0.0134388 0.0179359 0.0464943 0.057007 -0.147928 0.421443 0.141091 -0.19404 0.108883 -0.0356849 -0.0135604 -0.141717 0.0505358 0.182074 0.0483832 -0.309825 -0.464309 0.0363812 0.125507 0.0622138 -0.189575 -0.102909 -0.293754 -0.53241 0.11571 -0.20435 -0.0573064 -0.233211 -0.0912666
concept:gamescore 0.0800784 -0.152914 -0.197352 -0.0894659 0.108137 0.25757 0.0733975 0.29704 0.219993 -0.101314 0.0714553 -0.52531 -0.19383 -0.0721096 0.138864 0.107737 0.322131 0.467431 -0.179582 -0.321263 0.10559 -0.0880871 0.586354 -0.00478866 0.0620435 0.0629128 0.086697 0.346266 -0.00167713 0.0156186 0.301456 0.259061 0.352784 0.508045 0.347773 0.469921 0.281069 0.199984 0.194217 -0.0991003 -0.38673 -0.390045 0.16853 -0.230937 0.091561 0.478718 -0.146947 -0.182763 0.179857 0.331003 0.139481 -0.559828 0.0661286 0.37148 0.0620635 0.159681 0.404359 -0.0354759 -0.169958 0.0224617 0.0448661 0.211136 -0.645688 -0.142547 0.201259 -0.473438 -0.144522 -0.242062 0.048755 0.429088 -0.294006 -0.12783 0.165507 0.272382 0.420735 -0.269676 -0.0175909 0.233779 -0.36131 -0.329178 0.41752 0.0730432 0.113995 0.136019 0.222514 0.109769 0.0765846 -0.257165 0.193067 0.18335 -0.127199 0.312754 0.169232 0.481162 0.164712 0.705112 0.305055 0.0126098 -0.345983 0.0194399
concept:software -0.188512 0.0631144 -0.380436 0.0017451 0.366242 -0.183938 -0.356944 0.0376304 0.379968 -0.313571 -0.0636712 -0.601448 0.139771 0.068187 0.0484858 0.0115693 0.411304 -0.304411 -0.352484 0.268754 0.248189 0.0287699 -0.00267411 -0.171677 -0.420353 0.245555 0.194481 0.347953 -0.407261 0.00163518 -0.0863147 0.0262153 -0.41849 -0.214077 -0.0287468 0.0462259 -0.101687 0.17012 -0.303354 0.160273 -0.271223 0.129014 0.159575 0.279621 -0.0652454 0.083039 -0.218122 -0.0750681 0.0749271 0.0952104 0.53716 0.0102507 -0.186794 0.423184 -0.128835 0.0892801 -0.123346 -0.251033 -0.436625 -0.249352 -0.13031 0.509797 0.0497502 -0.080835 -0.342475 -0.153633 0.187512 0.101323 0.168584 0.0325267 0.124594 -0.105712 0.275729 -0.407274 0.0913096 -0.00743483 -0.0821951 0.050028 0.354836 -0.321583 0.0966749 0.00561505 0.319159 -0.253505 -0.20306 0.158415 0.203093 -0.125185 0.269332 -0.120565 0.375108 0.146687 -0.224693 0.291992 0.162273 0.0734044 -0.122635 -0.0830242 -0.26471 -0.336782
concept:personcanada 0.00342514 -0.17437 0.310025 0.0809818 -0.411478 0.197029 -0.0981654 -0.166872 -0.127701 0.649184 0.0629004 -0.129568 0.219199 -0.139065 0.266877 0.271183 -0.46001 0.0977444 0.376224 -0.594819 0.183343 -0.278298 0.0918067 0.15346 0.203872 -0.245931 -0.249669 -0.14857 -0.377253 -0.271726 -0.250351 -0.0554534 0.0437794 -0.260837 -0.104375 0.292636 0.385818 -0.12975 0.377317 -0.171377 -0.138304 -0.14339 0.038333 -0.201986 0.161762 0.155696 0.0319279 -0.210326 -0.161285 0.0572994 -0.0680784 -0.426874 -0.0546425 -0.230649 0.193628 -0.00580625 0.349791 -0.12755 0.155301 0.274168 -0.148307 0.0782076 -0.51604 -0.167032 0.0792904 -0.457348 -0.212116 -0.312866 0.0111446 -0.0347472 -0.40651 -0.0992131 -0.183265 0.0188514 0.287403 -0.0613622 0.114924 0.239614 0.156367 0.12242 -0.286545 0.0961588 -0.0943747 -0.10649 0.558271 -0.00952353 -0.0659578 -0.131105 -0.290101 0.071058 0.195038 -0.226104 0.0243923 -0.359812 -0.260534 0.159632 -0.277886 -0.0756441 -0.165078 -0.148682
concept:musicalbum -0.0728436 -0.179316 -0.364695 0.0705443 0.262717 -0.262637 -0.312636 0.604417 -0.053633 0.17498 0.0424999 -0.200262 -0.466213 -0.501247 0.0828199 -0.125783 0.306833 0.13302 -0.192137 -0.0836067 -0.365445 0.473092 0.206047 0.0526546 -0.0599799 0.0348385 0.290167 0.0198816 -0.280303 0.132662 0.034623 -0.237779 -0.186813 -0.120657 0.18666 0.361716 0.000861431 -0.313209 -0.609721 0.268903 -0.285558 0.142955 -0.203667 0.492008 0.804092 0.177342 0.180824 -0.468818 0.127826 0.0509726 -0.137065 0.0175452 0.316462 0.105676 0.148884 -0.508313 0.118637 -0.0125188 0.0427031 -0.106707 -0.176598 -0.101998 -0.10637 0.14854 0.39293 -0.164841 -0.217848 -0.0886807 -0.0442336 -0.277369 -0.522499 0.420373 -0.0617617 -0.167289 -0.0523101 0.136175 -0.0720005 0.00736355 -0.0100731 -0.289895 -0.222518 0.105758 -0.160323 -0.14399 0.116233 -0.0672768 0.0658847 -0.0900829 0.197756 -0.081767 0.175665 0.410516 0.416011 -0.0636487 -0.105619 -0.166202 -0.422815 0.0713905 -0.100181 -0.247606
concept:beach -0.0591535 0.0260509 -0.168035 -0.292686 0.0540603 0.367438 0.0497368 -0.28109 -0.0210574 -0.218542 -0.207542 -0.418201 0.315632 0.17562 0.191471 0.0922976 -0.124682 -0.00998482 0.52923 -0.353266 0.287575 -0.189153 0.154569 -0.397583 -0.0878933 0.230983 0.12372 -0.024153 0.3444 -0.0438359 0.0653402 0.212085 0.209948 0.142488 -0.0969249 -0.0591314 -0.0946323 -0.460317 0.0580047 0.234183 0.168319 -0.297767 -0.299299 -0.277782 -0.0286949 -0.00402122 -0.148319 0.00235103 0.13329 0.15357 0.0605842 0.180782 0.171759 0.0700288 -0.309603 0.405599 -0.111443 -0.0500073 -0.16617 -0.0965486 0.121894 0.32465 -0.108923 -0.430173 0.266144 0.0202968 -0.425207 -0.582769 0.12283 -0.378376 0.173416 -0.0473811 0.308358 0.15497 0.014952 0.108263 -0.326491 -0.238979 -0.161923 0.174289 0.179027 0.147026 -0.21906 0.122336 0.283785 -0.00793419 -0.0633238 -0.177184 -0.198917 -0.227295 -0.260393 -0.231725 0.0231196 0.0831258 -0.386054 0.0976652 -0.304376 -0.0747823 -0.697035 -0.663264
concept:geopoliticalorganization 0.0310577 -0.151641 0.171117 0.164066 -0.0424895 0.560106 0.0657175 0.178109 -0.117525 -0.173915 -0.101053 0.126269 0.144449 -0.00932711 -0.0329059 0.258355 -0.102585 0.476887 0.158574 -0.317768 -0.0764081 -0.252452 0.0909482 -0.0451242 -0.0610687 -0.0324146 -0.270949 -0.269724 -0.129007 0.0592264 0.365863 0.209592 0.0110723 0.150831 0.163548 -0.34697 0.0719069 0.0390314 -0.18685 -0.288185 -0.0679144 -0.190059 -0.454646 -0.218219 -0.03414 0.0154183 -0.203985 0.132028 0.017533 -0.184667 -0.107581 -0.150307 -0.0503001 -0.0951852 -0.0114078 0.277873 -0.0729515 -0.0476923 0.0886869 0.222462 0.551266 0.171527 -0.210834 -0.100401 0.0415242 0.0369932 -0.286676 0.114431 0.285393 0.357522 0.123305 -0.0108245 -0.163231 0.306532 -0.13051 -0.0443342 -0.186597 -0.398813 -0.295212 -0.00802855 0.128188 -0.354157 0.281408 0.12445 0.0411172 -0.0943851 -0.0809724 -0.199739 -0.270222 0.00717276 -0.195635 0.18659 0.136316 0.0480496 -0.283397 -0.0216849 0.0257859 0.0945565 0.199585 0.0393544
concept:product -0.201706 0.183436 -0.337574 -0.111776 -0.0959143 -0.589881 -0.259672 -0.21313 0.0374341 -0.122209 -0.0840535 0.0611809 0.0855436 0.0721944 -0.125545 0.0407067 0.430176 -0.0348675 -0.342975 0.322903 0.445623 0.338461 -0.52097 -0.269751 -0.650751 0.491655 0.304594 -0.213529 -0.591744 0.000531839 -0.251139 -0.195137 -0.359181 -0.218527 0.386148 0.137745 -0.123682 0.398466 -0.607276 0.210022 -0.317601 -0.140599 0.234402 -0.19308 -0.119441 -0.027812 -0.21155 0.0752978 0.109722 0.056739 0.337823 -0.228223 -0.187824 0.358147 -0.322136 -0.0241397 -0.406727 0.142446 -0.0719071 0.0916237 -0.106262 0.387961 0.105213 0.159859 -0.13956 -0.210885 0.0534211 0.106552 0.271978 0.14163 0.180576 0.106481 0.366802 0.0628997 -0.139084 -0.0905644 -0.156218 0.260466 0.539404 -0.350146 0.176534 0.0752557 0.392311 -0.17703 -0.220875 0.186202 0.391059 0.00293315 0.654595 -0.192368 0.328776 0.478144 -0.0803727 0.222431 0.111489 -0.0119664 0.0781353 0.0763818 -0.123678 -0.27245
concept:street 0.00957958 -0.0435313 0.224931 -0.302057 0.115936 -0.0705977 -0.0124507 -0.0608963 0.0570468 0.572017 -0.20416 -0.0855148 -0.0775061 0.0825711 -0.433173 -0.00456672 -0.273662 -0.036285 0.017744 0.0880898 -0.0487512 0.202389 0.0940491 0.13345 0.451162 0.140036 0.28018 0.0405002 -0.0166562 0.0845962 -0.148862 0.229314 0.0289551 0.564603 0.0859406 -0.139034 0.136296 0.112763 0.126513 0.135154 0.0826172 -0.235248 -0.0574268 -0.214866 -0.170334 0.0953386 -0.290256 0.252314 -0.00715276 0.0479311 -0.118641 0.104931 -0.177701 0.196944 0.0603023 -0.0657009 0.247126 0.00010982 0.0246794 -0.256909 -0.0407057 -0.230672 0.0159142 0.209466 0.264987 -0.428438 -0.126187 -0.0802006 0.16618 -0.113546 -0.188708 0.0349348 0.140184 -0.559836 -0.15748 -0.149078 -0.38649 0.220532 0.0900673 0.417581 0.280128 0.12761 0.594108 0.235814 0.316616 -0.536034 0.0918968 -0.00951296 -0.324507 0.00191169 -0.303072 0.187326 -0.112762 0.269697 -0.134134 -0.145803 -0.150328 -0.210117 -0.268167 0.013771
concept:astronaut 0.0630073 -0.0273365 0.488914 -0.033062 0.152629 0.37415 0.46876 -0.138091 0.00629572 -0.101543 -0.173505 -0.0158903 -0.401767 -0.0674281 0.0195633 0.0836212 -0.336927 0.396366 0.169257 -0.0398952 -0.332616 0.089996 0.391518 0.151412 0.0713838 -0.252183 0.0477948 0.0880713 -0.238296 -0.176757 -0.233789 -0.217121 -0.0588905 -0.3096 0.144706 -0.314564 0.432184 0.0891698 -0.317762 -0.0457455 0.0660985 -0.0834539 0.0961095 0.198906 -0.0578451 0.362199 0.0281592 0.136189 0.376053 0.56404 0.154101 -0.38291 0.26982 0.133934 0.00158271 -0.225809 0.522657 -0.225727 0.0409799 0.223832 0.197948 0.292827 -0.381274 -0.101532 0.602473 0.072982 0.224565 -0.216238 -0.229298 -0.0322472 0.135429 -0.0241089 0.51445 0.170871 -0.141109 -0.0539224 0.57491 0.5461 -0.554088 0.101807 -0.297524 0.118049 -0.158134 -0.243232 -0.419155 0.0490485 -0.445022 -0.410647 -0.265887 -0.0965243 -0.00299674 -0.0433856 0.0410655 -0.440999 0.308291 0.207701 -0.0589002 -0.268261 -0.207233 0.252481
concept:virus 0.206892 -0.44326 0.126158 -0.113242 -0.441361 0.023092 -0.00260651 0.291546 -0.205335 -0.0672624 0.216741 -0.497558 0.125113 0.0398923 0.116139 0.419693 0.288354 -0.0330461 0.0522056 0.144961 -0.0169995 -0.179385 0.453663 0.151644 -0.129211 0.163619 0.211276 0.0190343 -0.149033 -0.264343 -0.214659 -0.055212 -0.231599 0.170042 0.237806 -0.120175 -0.0223995 -0.0864272 0.0886531 -0.114013 0.0519786 -0.306464 -0.393488 -0.262355 -0.0960648 0.402428 0.191538 -0.274698 0.341804 0.448261 0.301529 0.0233038 -0.141964 0.268751 0.0190705 0.44482 0.223368 0.374231 0.0449393 -0.037599 0.18291 0.377994 -0.0529136 -0.509489 0.319784 -0.0920019 0.111428 -0.3073 -0.0491495 0.446823 0.0685321 0.176287 -0.371022 0.196439 0.0807271 -0.246468 -0.297911 0.166815 -0.0958179 -0.109739 -0.20358 -0.00922222 -0.0120629 0.298571 -0.0990707 -0.140141 0.0427494 -0.0425668 -0.10328 -0.0304935 -0.119235 -0.179291 -0.00354485 0.353732 0.209744 0.42529 -0.0599944 -0.112323 -0.271663 -0.321251
concept:criminal -0.049078 -0.613917 -0.133992 -0.0708406 0.121329 0.46506 -0.0369852 -0.207592 -0.287807 -0.107677 0.0631298 -0.0641283 0.160355 -0.0089273 -0.149363 0.492781 0.498616 -0.310149 0.522677 -0.639873 -0.317189 -0.346979 0.254618 0.166815 0.272495 -0.350377 -0.244498 -0.0884201 -0.186519 -0.30936 -0.279042 -0.0175649 0.0763617 0.265092 0.00579616 -0.273305 0.547213 -0.469431 0.0315694 -0.252472 0.000572739 0.0245478 -0.0668988 0.326968 0.122793 0.0645061 0.107805 -0.306604 0.0864905 0.358982 0.0767509 -0.290492 0.179958 -0.336923 0.426993 0.0877352 0.314741 -0.297363 -0.332166 0.160651 -0.119798 -0.118759 -0.0497795 -0.136095 -0.492585 0.224145 -0.113893 0.275541 -0.159081 0.0177977 -0.411901 0.0495832 -0.220228 0.0262165 -0.347988 -0.0854959 0.10164 -0.167834 -0.400296 0.0573483 -0.221498 -0.101227 0.0774993 0.00984659 -0.786408 -0.0875699 -0.105493 -0.424063 -0.0423617 -0.213142 0.0915414 -0.207352 0.0676245 0.478083 0.419055 -0.404935 -0.430652 0.116016 -0.16231 -0.0552254
concept:trail -0.0329764 0.167848 0.241336 -0.214517 0.0521071 0.271603 -0.250593 -0.0769065 -0.223517 0.533621 -0.191815 -0.0431868 0.0805544 0.607497 0.487579 0.450166 -0.389069 0.0359319 -0.0196874 -0.486448 0.396925 0.0514611 0.306736 0.323303 -0.119389 -0.145431 0.203009 0.284796 0.604082 -0.0401075 -0.357161 0.343629 0.190364 -0.144314 -0.0399508 -0.0571065 -0.053054 0.250148 0.361406 0.265658 0.0264353 -0.271102 -0.192338 0.0882941 0.279492 0.140733 -0.406102 0.0675382 0.131629 0.23667 0.235018 0.274559 0.0394497 0.107563 -0.00290669 0.329631 0.456213 0.0231754 -0.364163 -0.211213 -0.383049 0.284455 -0.0759224 -0.118718 0.294366 -0.131693 -0.256701 -0.262709 0.187483 0.0749618 -0.111422 0.0884415 0.139345 0.0836235 -0.138621 -0.208463 -0.152691 0.197117 -0.0446048 0.163447 0.0784466 -0.165652 -0.252196 0.277168 -0.00649747 -0.551209 -0.0819722 -0.281175 0.144937 0.0136612 -0.338213 0.208725 0.0138787 0.0532697 -0.15622 -0.116986 -0.498572 -0.14334 0.118355 -0.0635928
concept:roadaccidentevent -0.152703 0.015718 0.149157 -0.0925596 0.0495131 0.0169306 0.065532 0.155584 0.190712 0.0690414 0.252825 0.0721405 -0.235196 -0.135954 -0.214182 -0.187911 -0.0247869 -0.210438 0.0407974 0.0319204 -0.0035762 -0.0706683 -0.0414838 0.0969646 -0.135985 0.0300158 0.0983325 0.00245167 -0.123346 0.0314543 0.204457 0.100056 0.0762722 0.0428554 -0.224004 0.211455 0.130702 -0.218804 0.018099 -0.146946 -0.159097 0.151149 0.150005 0.277848 -0.118337 0.0250332 -0.15574 -0.0646022 -0.169117 0.178106 -0.116439 0.0501736 -0.0728016 -0.14484 -0.0831019 -0.0945809 -0.191531 0.286882 -0.306752 0.275563 0.0949289 0.226619 0.10752 -0.100918 0.0737086 -0.12255 -0.234684 -0.183422 -0.258395 0.264933 0.00805165 -0.0396863 0.174222 -0.0221469 -0.0946232 0.127598 -0.024317 -0.141443 -0.0888659 0.0700761 -0.252686 0.125375 0.0996409 0.129708 0.24218 -0.156247 -0.233004 -0.00461425 0.261758 -0.0330222 -0.147148 -0.0567953 -0.0204799 -0.280453 0.0496598 -0.0502985 0.18643 -0.114466 -0.4017 0.127136
concept:physicalaction 0.540762 -0.039371 -0.470023 -0.554396 -0.214262 -0.23409 -0.323284 -0.470276 -0.159471 0.136444 0.267433 0.178982 0.194475 -0.0743296 0.686563 -0.0886449 -0.567957 -0.270813 0.423554 -0.137897 0.526215 -0.177023 -0.284905 -0.547706 0.101866 0.0988839 -0.129731 -0.270694 0.280044 -0.178715 0.90336 0.0818875 -0.439907 0.140586 -0.0157368 -0.170725 -0.478759 -0.0461137 0.203107 0.26392 -0.369471 0.0630946 0.110583 -0.512179 0.391534 -0.18894 0.101763 -0.288676 -0.03804 -0.0917276 0.298016 0.0295831 0.189618 0.302684 -0.198556 0.0368992 0.285191 -0.412393 0.316743 0.104322 0.0714032 0.20325 -0.755334 0.199466 -0.0615029 -0.113934 -0.462548 -0.102701 0.21043 0.372665 -0.431359 0.44633 -0.65356 -0.529759 0.66275 -0.0571053 -0.394346 0.4797 0.396882 0.156355 -0.414977 -0.278526 0.108434 -0.277262 0.0823687 -0.419117 0.0643862 0.271966 -0.384595 -0.0338427 -0.307355 -0.269852 0.597386 -0.158829 0.616822 0.209561 0.517674 -0.0558792 -0.117475 -0.188606
concept:archaea 0.0987796 0.0470984 -0.2979 0.234209 -0.281439 0.368793 0.259307 0.356634 -0.296141 0.01057 0.120027 -0.0286262 -0.147206 0.197612 -0.017533 0.537967 0.481637 0.257612 -0.158026 -0.0283718 -0.268131 0.181394 0.223112 0.172342 -0.010273 0.276853 0.0798473 0.242914 0.0593729 -0.00553512 -0.160013 -0.343337 -0.189969 0.434305 0.26095 0.246589 0.216161 -0.240224 0.185897 -0.195042 0.0258941 0.193012 -0.576962 -0.196197 0.523323 0.0916994 0.12656 -0.469074 0.391198 0.553838 0.0404188 -0.429723 -0.0840527 0.163622 0.27415 0.360425 0.173235 0.202292 0.212252 0.22645 -0.188026 0.238859 -0.324481 -0.0569869 0.28236 -0.00384388 -0.243031 -0.120714 -0.134361 0.182936 0.262829 0.271167 -0.645588 0.173236 -0.00111041 -0.62795 -0.124734 -0.155964 0.147964 0.0495958 -0.0358991 -0.232374 -0.172777 0.511201 -0.372323 -0.021087 0.0806871 0.0972057 0.098635 0.161253 0.137805 -0.360961 -0.443507 -0.0430675 0.296521 0.461781 0.160574 -0.245055 -0.425028 0.143268
concept:personafrica 0.0300948 -0.163289 0.477046 0.00153551 -0.37503 0.236435 -0.205287 0.144565 0.0771643 0.183835 -0.0859412 -0.141092 -0.225343 -0.161146 0.522805 0.430666 0.0603555 0.313407 0.183161 -0.54193 -0.203692 -0.155491 0.15992 0.0560198 -0.330098 -0.151307 -0.0272131 -0.0569169 0.0836884 -0.516263 -0.192808 -0.123615 0.39222 -0.0221744 0.106395 0.226037 0.100914 -0.36215 0.108454 0.0736391 -0.0774249 -0.0453768 -0.251304 0.0792702 -0.0517228 0.136984 0.0506565 0.00672045 0.261057 0.517854 0.203787 -0.277533 0.104485 0.121951 0.296552 -0.024753 0.034708 -0.164454 0.292245 0.311856 -0.0442587 0.138887 0.072843 -0.157863 -0.0532566 -0.437426 0.0281419 0.00733046 0.378278 -0.13698 -0.217028 -0.050488 0.052602 0.028689 0.213194 -0.117617 0.19939 0.323816 -0.673135 -0.178057 -0.36745 0.239559 0.019293 0.149591 0.337473 -0.549016 -0.238023 -0.500467 -0.054106 0.300541 0.0464474 0.0916555 -0.00364099 0.00901942 -0.299592 0.131294 -0.497544 -0.070824 -0.131028 0.145725
concept:personasia 0.00143164 -0.218714 0.375906 0.0689694 0.0769218 0.35723 0.0162084 0.047551 0.267352 0.0237135 -0.210764 0.169196 0.00203732 -0.0684844 0.0913527 0.199971 -0.353595 0.250906 0.215049 0.0929099 -0.176268 -0.123543 0.4891 -0.0680188 -0.118595 -0.115544 -0.152696 0.198908 0.368187 -0.309319 0.134066 -0.156286 0.237536 0.00830657 0.0867935 0.629061 0.138802 0.107642 0.288696 0.181063 0.283014 0.041587 0.0916195 0.0370552 0.0211847 0.0376153 0.101346 -0.13367 0.011308 0.0465573 -0.0214669 0.45099 0.182323 -0.0737726 0.122917 0.248535 0.461856 0.0397114 -0.259676 0.189122 0.0251982 0.543721 -0.700043 -0.151435 -0.0406726 0.160976 -0.119295 -0.298652 0.200395 0.0776927 -0.0262893 0.111907 -0.122937 -0.0461849 0.0827228 -0.0973407 0.218127 0.353133 -0.606045 0.0756116 -0.1156 0.14865 0.0964999 -0.164831 0.21427 0.000136611 -0.339121 -0.415514 -0.262344 0.0960391 -0.00426135 -0.178032 0.0660413 -0.50768 0.43748 0.240834 -0.440546 -0.233214 -0.278369 0.0347967
concept:medicalprocedure 0.562222 -0.644206 -0.241169 -0.00500654 0.0934839 0.0835982 -0.262446 -0.177159 -0.202106 0.501497 0.177923 0.323023 -0.199831 -0.0820754 -0.0543486 -0.182971 -0.0206618 0.759888 -0.347338 -0.226803 0.226741 -0.196863 -0.0524534 -0.356068 0.524214 0.19422 0.276061 -0.341626 0.559762 -0.283625 0.450982 -0.21349 0.143929 -0.210851 0.635872 0.323336 0.0429901 0.762441 -0.23804 -0.177327 -0.349126 0.381825 -0.236771 0.129764 0.534323 0.299609 0.167085 0.333627 0.37655 -0.180785 0.0544353 -0.339809 0.163971 0.455884 0.275024 -0.238006 -0.0638652 0.451528 0.294518 -0.319705 0.453595 -0.272188 -0.3783 0.0647453 -0.00979579 -0.297323 -0.097035 -0.23008 -0.311375 0.307437 -0.406884 0.347404 0.40088 0.0174225 0.322693 -0.0683442 -0.450296 0.0484519 0.178509 0.025624 -0.264503 0.317537 -0.19388 -0.0738019 -0.218491 0.427599 0.344582 -0.133513 -0.484169 0.0329522 0.286513 -0.267156 0.23216 -0.614465 0.245929 0.116649 0.182066 -0.22971 0.313801 -0.154471
concept:monument 0.106619 0.143521 0.192716 0.192494 0.0630446 0.107076 -0.027555 0.0990394 -0.165452 -0.0721537 -0.175711 -0.281506 -0.00707493 0.461409 0.285262 -0.00673235 -0.0169689 0.459683 -0.0168823 -0.245449 0.135473 -0.110214 0.12661 0.19646 0.438906 -0.485046 0.21456 0.244792 0.410805 0.268281 -0.191114 0.313653 0.0559449 -0.0311312 0.275607 -0.0984314 -0.111149 0.312484 0.0161504 -0.0366517 0.122491 -0.343874 0.0498087 0.167308 -0.152392 0.0840621 -0.344776 0.142355 -0.0814456 0.0373233 0.00930952 -0.385597 -0.156311 0.0488997 0.00677621 0.484783 0.0244008 0.260733 -0.561148 -0.503822 -0.489748 0.0841272 -0.186973 -0.17881 0.248338 -0.240652 -0.380847 0.03901 0.00201313 0.121392 0.471964 0.10578 0.12101 -0.349389 -0.175302 -0.145582 0.343409 0.228149 -0.332718 -0.316917 -0.0712951 -0.186426 -0.252058 -0.288962 0.50036 0.116795 0.0230386 -0.222848 -0.226755 -0.0833319 -0.358944 0.174152 -0.204653 -0.231092 -0.08306 -0.109894 -0.349313 -0.11222 -0.00982798 -0.151387
concept:tool 0.303044 -0.754017 0.534523 0.0638877 -0.082632 -0.0268423 0.0895492 -0.312286 0.0589986 0.466489 0.197699 -0.21984 -0.153787 0.319574 -0.231258 -0.139073 -0.0778937 -0.0143574 -0.266644 -0.0134829 0.232303 -0.0880632 -0.230668 -0.164465 0.209531 0.186757 -0.328987 0.39935 -0.274402 -0.438135 -0.345524 -0.313214 0.0609297 -0.346199 0.0397813 -0.389368 -0.231122 -0.10111 -0.256145 -0.0632286 0.188776 0.0940613 -0.123375 0.393019 -0.175431 -0.0981428 -0.187937 -0.321692 0.239217 -0.102236 0.219391 -0.260918 0.144904 -0.0579148 -0.425044 0.101809 -0.121728 0.140012 -0.21419 -0.200611 -0.142704 0.4129 -0.219097 -0.452074 -0.115567 -0.346929 0.321976 0.408849 0.0922005 -0.535702 -0.555836 0.524818 -0.459493 -0.430473 0.350577 -0.236099 -0.492671 0.515251 0.450938 -0.259558 -0.271281 -0.236557 0.567871 -0.509457 0.203133 -0.476911 -0.0416499 -0.575463 0.0984219 0.215944 0.413377 0.146472 -0.21152 -0.302215 0.506059 0.144494 -0.485025 0.28967 0.234247 -0.414348
concept:politician -0.0646248 0.16655 0.0131932 0.0473474 -0.223785 0.00278447 0.447285 -0.218181 0.444841 -0.129099 0.165289 0.140447 0.230633 -0.122574 -0.0661969 0.427236 -0.0579585 0.00168485 0.0772861 -0.077678 0.029106 -0.104059 0.349688 0.190029 0.485213 0.120306 -0.0285045 0.0127009 -0.0538334 -0.116545 -0.0168324 -0.129678 -0.283156 -0.195332 0.262967 0.207491 0.13635 -0.526461 0.160769 -0.167704 0.135771 0.232427 0.0604342 0.28833 -0.054552 -0.198233 0.267935 0.364122 0.628176 -0.0101095 -0.194633 -0.27732 -0.362484 0.447089 0.0638721 -0.0576933 0.125197 -0.386137 -0.609189 0.299305 0.0779315 -0.187908 -0.375066 0.106672 -0.0955357 -0.104529 -0.130361 0.380027 0.255424 0.0345095 0.122241 -0.15303 0.168503 0.209445 -0.268927 0.015269 0.121186 0.00156976 -0.099446 0.136567 -0.0974845 0.0869152 -0.149879 -0.161027 -0.195122 0.00840717 -0.156274 -0.312983 -0.234803 0.466156 0.119225 -0.281463 -0.0818141 -0.355452 0.0105222 -0.100805 0.31322 -0.144846 -0.14633 0.210386
concept:conference 0.126789 0.148322 -0.148184 0.217495 -0.218041 -0.0377209 0.253293 -0.164568 0.143189 0.104435 0.309328 -0.195952 0.0890302 -0.222153 -0.239581 -0.285446 -0.52148 -0.297965 0.0443662 0.0315585 -0.389152 0.208876 -0.112379 -0.172388 0.0996607 -0.0355426 0.150087 0.701298 -0.309657 -0.00768858 0.11969 -0.0724248 0.133073 0.0756243 0.0509582 -0.332247 -0.238026 0.129037 0.0593786 -0.117429 -0.182108 -0.0323995 0.0393564 -0.0843297 0.0532265 0.0273678 -0.096273 -0.156278 -0.00569877 -0.157906 0.00704033 0.0391076 0.696473 -0.0664131 0.0934554 -0.0738871 0.121912 0.290869 -0.00533683 0.364569 -0.158865 0.160248 0.166287 -0.472487 -0.0794504 0.427519 0.442085 -0.0707848 -0.46006 0.261997 0.160982 0.2211 0.149726 0.0267773 -0.124575 0.00290307 0.211 -0.0552161 -0.173647 0.13135 -0.417805 -0.439383 -0.0376924 0.0530663 0.068933 0.29741 0.104931 -0.0686542 0.107785 -0.297661 -0.105005 -0.0858831 0.318644 -0.0306021 -0.52425 -0.167271 0.0677725 0.0148066 0.150341 0.156036
concept:insect 0.0889917 0.31149 -0.125355 -0.316147 -0.090345 0.0537946 0.206332 0.137688 -0.333303 0.340066 0.598706 -0.0884111 -0.282314 0.0901739 0.237767 0.398783 0.415137 -0.173101 -0.175065 0.393118 -0.308046 -0.0329396 -0.0653353 0.214184 -0.125523 -0.361079 -0.306392 0.338538 0.218278 -0.446695 -0.385836 0.099922 0.126444 -0.0739566 0.452494 -0.404699 0.221584 -0.29553 -0.22451 -0.236042 -0.0648946 -0.334292 -0.412661 0.149726 0.18938 0.508534 0.417755 -0.161026 -0.0056858 -0.000401657 0.248946 0.124227 -0.000719983 -0.0481644 -0.331195 -0.197615 0.489337 0.0495003 0.152932 0.283832 0.178651 0.231478 -0.0908651 -0.421506 0.215551 0.0113202 -0.280411 0.17138 -0.387799 0.273224 0.0711183 0.00286958 -0.329902 0.136732 0.216263 -0.116198 0.10581 0.11174 -0.097311 -0.334917 -0.15708 0.216232 -0.140726 -0.257955 -0.110897 -0.530137 0.146273 -0.204897 -0.066148 -0.0995612 0.0181778 0.0401829 -0.0176705 0.26933 -0.0571964 0.488252 0.0482404 -0.0870114 -0.235528 0.138299
concept:restaurant -0.292448 0.218483 -0.445641 -0.196952 0.0131033 0.0912435 0.0433164 -0.0321293 -0.0878574 0.00626888 -0.13772 -0.0436861 -0.16962 -0.292278 -0.080274 0.132008 0.353667 0.0926955 0.355998 -0.749957 -0.139539 0.153185 0.200674 0.179647 0.165623 0.214778 0.132141 0.204719 0.540853 0.0200433 0.133391 0.244355 0.116336 0.010554 -0.0192186 -0.0543931 -0.278429 0.202261 0.103214 0.0410563 0.0240362 -0.278513 0.176056 -0.360368 -0.0672638 0.387169 -0.0408313 0.0392756 -0.177688 0.073308 -0.192558 0.0018282 -0.083983 -0.00349097 0.351871 -0.130389 0.142036 0.112903 0.175228 -0.181162 -0.228264 -0.0580035 -0.0377169 0.235612 0.109671 0.281535 0.149753 0.219868 -0.0817898 -0.0779739 0.0463624 0.305389 0.0816666 -0.479916 0.0381927 -0.0380786 0.562768 0.244337 -0.070632 0.313076 0.161042 0.253098 -0.223699 0.153271 0.0629861 -0.347472 0.0419893 -0.138514 -0.295027 -0.137578 -0.333863 0.252301 -0.00629478 0.0991109 0.0300207 0.0461007 0.37864 -0.0411115 -0.0937823 -0.259927
concept:sportsequipment -0.0100035 -0.129989 -0.193654 -0.375439 -0.0859568 -0.0351306 0.228249 -0.120324 -0.0139777 0.763292 0.358402 -0.0234528 -0.0123399 0.0686962 -0.117122 -0.298088 -0.299619 -0.145332 -0.0965146 0.0838244 0.405627 -0.218017 -0.217998 -0.294705 0.297772 0.218122 -0.28759 -0.14593 0.319772 0.163868 -0.200689 0.375769 -0.147415 -0.279676 -0.0945112 -0.0928634 -0.227526 -0.3579 -0.113342 -0.101349 0.000749861 -0.610059 -0.152425 -0.278306 0.15151 -0.0577059 0.281868 0.465182 -0.354886 -0.0244976 0.209512 0.241749 0.404039 0.173314 -0.469284 0.34036 0.362827 -0.0479391 -0.407795 0.295936 0.173475 -0.0530683 -0.222592 -0.385168 0.387463 -0.575708 -0.0432699 -0.0480909 0.397078 -0.390023 -0.0890354 0.4459 -0.0679514 0.44482 0.566308 -0.261676 -0.234901 0.0731602 0.309891 0.0453089 -0.264631 0.251914 0.279079 -0.0708131 -0.194698 -0.218188 -0.311735 -0.238094 0.155221 0.219199 -0.254879 -0.214158 -0.213718 -0.275324 0.119111 0.295471 -0.538245 0.374321 0.171353 -0.351698
concept:politicsblog 0.0428876 0.170219 0.119658 -0.0217307 -0.349639 0.38032 -0.157056 -0.127159 -0.261609 0.0847963 0.0309689 0.143604 0.00771936 0.187739 -0.222065 -0.0900263 -0.166804 0.230357 0.708739 0.23699 -0.255177 -0.0752901 0.0296294 -0.0935474 -0.0662509 -0.183543 -0.238683 -0.400433 0.191311 -0.070414 0.299534 -0.195973 0.0488602 -0.219816 -0.25445 0.0947204 -0.133148 -0.176646 -0.045152 0.163373 0.408332 -0.155598 -0.223558 -0.192598 0.296152 -0.141103 -0.360964 -0.0194654 0.0271452 -0.101413 0.0494767 -0.0477183 0.0863726 0.0639481 0.0127155 -0.191552 0.0446544 0.0589952 -0.207274 -0.231073 -0.143154 -0.21377 -0.238281 -0.111849 -0.205569 0.0362416 0.12784 0.143214 0.207458 0.387405 0.171063 -0.00926447 0.0165796 -0.196324 0.10728 -0.208297 -0.0549668 0.51788 -0.402202 0.0585844 -0.126075 0.0674522 0.357856 -0.459214 0.419683 -0.194416 0.323359 -0.22742 0.068063 0.0495709 -0.286259 0.247768 -0.0953708 0.279909 -0.0957356 0.54171 -0.25458 -0.225105 -0.212248 -0.00740265
concept:physicalcharacteristic -0.0644748 -0.152209 0.290133 -0.437792 -0.525281 -0.166712 -0.259607 0.0619585 -0.246186 0.770403 -0.417069 -0.126936 -0.110599 -0.249081 0.274821 0.0406677 0.488363 -0.411415 -0.0518416 0.153039 -0.0573631 -0.0885915 0.0533144 0.301047 0.108277 -0.727945 0.360701 0.458622 -0.0321228 -0.287263 -0.27974 0.271335 -0.027785 0.026273 -0.0917074 -0.341196 -0.423951 -0.0103991 0.235887 0.532441 0.2992 0.26642 0.49052 -0.176625 0.0706537 -0.117007 -0.275812 -0.498886 0.390042 0.160003 -0.346807 0.0835734 0.173413 0.145929 0.0674759 -0.240629 0.436331 0.101305 0.486394 -0.273441 -0.460407 0.458017 -0.116556 -0.119698 0.0979808 -0.201974 0.330938 -0.273626 0.0785368 -0.266138 0.369686 -0.23047 0.327524 0.0761699 -0.0542485 -0.620225 -0.313688 -0.0992718 -0.0494882 -0.394698 -0.334963 0.138885 0.261958 0.119982 -0.147554 -0.193359 0.00154012 0.100109 -0.162368 0.720269 -0.204036 -0.265265 0.471006 -0.137672 0.30232 0.0299118 -0.0624766 0.246884 -0.338802 -0.381936
concept:bakedgood -0.253225 0.0282505 -0.155203 -0.426457 -0.506068 -0.277192 0.0078902 -0.557155 -0.21392 0.0582974 0.0726439 -0.137238 0.285846 -0.208112 -0.142126 -0.290318 0.137099 -0.362322 0.67119 0.266505 0.327182 -0.0299131 0.394591 -0.32585 -0.278035 -0.26572 0.104481 0.403599 0.40991 -0.488045 -0.326384 0.441342 0.00665653 0.0260538 -0.315784 -0.117289 -0.211386 -0.142566 -0.0183415 -0.448953 -0.159408 -0.0226554 0.0452903 0.145023 -0.18576 0.258275 -0.105282 0.195262 -0.0408517 -0.144324 0.070306 -0.435159 0.246802 0.0916431 -0.21686 0.0336214 0.549771 0.510901 0.269938 0.0416323 0.1927 -0.207975 -0.170584 -0.0382656 0.15064 -0.0248769 0.387938 0.0843377 -0.432409 0.176226 0.197508 0.321056 -0.0924349 -0.395469 -0.168407 -0.0504292 0.0615111 -0.372547 0.146117 0.35278 -0.166142 -0.118735 -0.0329951 -0.0174277 -0.0884432 -0.151552 -0.299629 -0.0225248 -0.414149 -0.0454035 0.141523 0.133164 0.138317 0.16418 -0.369021 -0.326883 0.0770687 -0.307741 0.213934 -0.400263
concept:sociopolitical 0.311858 -0.0695581 -0.308676 0.407291 0.175192 -0.046639 -0.229849 0.0847296 -0.152667 0.53908 -0.237267 -0.0176768 -0.438196 -0.0124666 -0.0230169 -0.097316 0.269558 0.457201 -0.192548 0.397897 0.240667 -0.345663 0.0853733 -0.0634267 -0.0595515 0.214478 0.0295285 -0.567726 0.368987 -0.827798 -0.213949 -0.0817121 0.21726 0.269128 -0.23886 0.111718 0.0484582 -0.181176 0.507354 -0.220545 -0.0828736 0.36198 -0.196495 0.302775 0.122527 0.516104 -0.568388 -0.199171 0.293053 0.252071 0.577294 -0.511835 0.153237 -0.177656 -0.0886125 0.702344 0.169521 0.471659 -0.334876 -0.403533 -0.17274 -0.52357 0.129417 0.137851 -0.35195 -0.393757 0.132138 -0.0058539 -0.0211616 0.0763356 -0.0683271 0.235571 -0.186478 -0.257748 0.117674 -0.311041 0.0879578 -0.11703 -0.0141037 0.0957428 -0.058269 -0.494222 0.156007 -0.0776054 -0.104785 0.0148248 -0.0278321 -0.437319 0.021973 0.452727 -0.263599 -0.202723 0.34286 0.20499 0.0452424 -0.225342 0.174882 0.427158 0.175555 -0.326253
concept:meetingeventtype 0.142326 -0.15909 0.164879 0.134598 0.091647 0.0496289 0.140223 0.325262 0.213495 0.301001 0.0775503 0.0267282 -0.189651 0.208377 0.000636776 -0.0780817 0.22257 0.16915 0.0615097 -0.222997 0.124681 -0.224527 0.00916589 -0.0617451 -0.145296 0.137188 -0.129869 0.17489 0.0419411 0.0433353 0.270859 -0.105451 0.105136 -0.130212 -0.12407 0.128359 -0.0627354 0.108693 0.0907854 -0.0548754 -0.283882 -0.145055 -0.376968 0.054602 0.179594 -0.0444924 -0.177895 -0.144111 0.155903 -0.0156084 0.120133 -0.0282245 0.0921232 0.184112 0.073272 0.157722 -0.0517407 -0.0251712 -0.0885345 0.132611 -0.163425 0.0959969 0.0951844 -0.203975 -0.000565708 0.140204 0.0885707 -0.150461 -0.114521 0.244498 -0.161767 -0.0793723 0.0129643 -0.0777522 0.269695 -0.12261 0.15142 -0.147946 -0.305629 -0.178843 0.0862688 -0.169704 0.0404632 0.212088 0.0103094 -0.0447641 -0.240796 0.101912 0.191349 -0.158058 -0.263286 -0.207854 0.259891 -0.0992394 -0.134964 -0.0201617 0.0835511 0.268633 -0.107641 0.104402
concept:blog -0.0378668 0.20463 0.0124054 -0.0458597 -0.101803 0.45567 -0.117288 -0.149764 -0.118407 0.194248 -0.237161 0.123853 0.102615 0.304074 -0.0280256 -0.450878 -0.122966 0.167453 0.620565 0.123885 -0.160803 0.0748677 -0.0321283 -0.185269 -0.0497664 -0.346332 -0.31526 -0.211962 0.285345 -0.105893 0.287126 -0.346864 0.217135 0.0264322 -0.340786 0.170297 -0.164952 -0.0419478 0.0793148 0.195739 0.282 -0.132406 -0.159291 -0.0807348 0.338994 -0.146396 -0.290839 0.0412724 -0.0760039 -0.0602041 0.0587195 0.115238 0.0370098 -0.00908453 0.162787 -0.284615 0.089888 0.125519 -0.166819 -0.236821 -0.0688708 -0.242109 -0.20893 -0.0549993 -0.299659 0.117394 0.218527 0.175745 0.208635 0.322529 0.30131 0.102723 0.160024 -0.254584 0.00726882 -0.170234 -0.260079 0.410383 -0.321871 -0.0244889 -0.0613918 0.0512658 0.272719 -0.218582 0.17818 -0.0476273 0.306321 -0.2022 -0.0101001 -0.101298 -0.266637 0.111083 -0.125161 0.306692 -0.034008 0.287948 -0.293404 -0.339273 -0.126276 0.0709152
concept:mediacompany -0.169472 0.228069 0.260116 -0.0547133 -0.520903 0.266577 -0.223092 -0.357071 0.0531383 -0.199822 -0.156844 0.262218 0.0370086 0.215021 -0.052397 -0.299862 0.0710183 0.32209 -0.111855 0.0912683 -0.174942 0.012836 -0.130802 -0.288425 0.370932 -0.17813 -0.0958214 0.189705 0.268252 0.152543 0.371402 -0.453771 0.1427 0.319526 -0.302337 0.60188 -0.327766 0.0896614 -0.00494531 0.151567 -0.0419529 -0.014815 -0.43723 0.157072 0.226481 0.00337582 0.115653 0.043524 -0.152897 -0.0286443 0.159927 0.200973 0.294071 -0.0934531 -0.0672319 -0.162014 -0.0162235 0.352277 -0.25687 0.0990186 -0.170983 -0.0654619 0.0144753 -0.115678 -0.214642 0.217447 0.248806 0.254629 0.291308 -0.0625749 -0.115778 -0.131338 -0.0976737 0.182711 0.425708 -0.0758448 -0.328642 -0.496883 -0.272636 0.295875 0.252202 0.542397 0.269083 -0.114055 -0.219386 0.310338 -0.121385 0.0692813 -0.406735 -0.0816321 -0.0142338 0.122998 0.0190546 -0.0300752 -0.185438 0.129139 -0.320379 -0.455417 0.00880514 -0.00633509
concept:bridge 0.518376 -0.243831 0.11252 -0.434279 -0.198324 0.0290416 0.217955 0.115345 0.137221 -0.137008 -0.221646 -0.28125 0.264486 0.102122 0.380378 0.192585 0.229153 -0.62965 0.517557 0.076764 0.417887 -0.443556 0.26554 0.117446 -0.0732335 0.184141 0.265162 0.0650692 0.267184 -0.120694 0.0470259 0.344922 0.0660967 0.131345 0.0761182 -0.254633 0.125467 0.395508 -0.350666 0.241054 0.109671 -0.554939 0.137229 0.0408183 -0.0966725 0.232735 0.0393149 0.00884999 0.0958807 0.409031 -0.0824005 0.0115525 -0.0893776 -0.114564 -0.056896 -0.176257 0.576546 0.177786 0.512984 -0.285112 -0.14016 -0.16552 -0.136526 0.113734 0.290108 -0.318932 -0.0345365 -0.0170198 0.0524595 -0.061098 -0.316448 0.1378 0.143494 -0.299773 0.0364894 0.0524105 -0.312506 0.334837 -0.375462 0.16514 0.247296 -0.0987316 -0.234721 -0.327466 0.0591425 0.274948 0.113169 0.0101584 0.0321579 -0.182808 -0.408394 -0.0356374 0.0983439 -0.143379 0.465226 0.205186 0.0258258 -0.184657 0.169483 -0.262387
concept:male 0.0221338 -0.814525 -0.00646656 0.0886857 -0.281947 0.435888 -0.00676614 -0.126717 0.541295 -0.0636929 -0.090298 0.0261251 0.0909866 -0.145401 -0.0683614 0.0650739 -0.730579 -0.174492 0.0524551 -0.730098 -0.0485089 -0.543572 0.215384 0.0734278 0.722122 -0.291934 -0.189049 -0.171765 -0.123608 -0.342856 -0.34633 -0.218564 -0.156059 -0.160909 0.14757 -0.0306282 0.145968 -0.084346 0.303304 -0.248199 0.0533397 -0.00268518 0.148279 0.157202 0.0791692 -0.165592 0.193469 -0.0852551 -0.0578956 0.0502712 -0.152963 0.231804 -0.0128652 -0.0652692 -0.0422252 -0.0381028 -0.120063 -0.26269 0.0813879 0.218706 -0.220218 -0.0869208 -0.420296 0.0894694 -0.48338 -0.0999655 -0.266048 0.0288988 0.258572 -0.202057 -0.118124 -0.0778084 0.201161 0.0642345 -0.139476 0.00606622 0.2492 0.00722392 -0.11373 0.00117984 -0.510694 0.31626 -0.0882182 -0.304842 0.000464579 -0.618619 -0.419867 -0.319271 -0.0877473 0.0595443 0.0271253 -0.0652114 -0.223834 0.386063 -0.0632939 -0.135747 0.292373 -0.272379 -0.392278 -0.0156427
concept:researchproject 0.491174 0.0974835 -0.137166 0.041933 0.0306568 0.00651037 0.416956 -0.0702929 0.0233674 0.128226 -0.01406 0.071115 -0.0525533 0.532844 -0.0894782 0.123464 0.49528 -0.260991 0.122369 0.276387 -0.12407 0.216979 -0.133849 0.0694064 0.110365 0.326122 -0.198888 -0.0529533 0.399764 0.0573244 0.155741 -0.118275 0.214916 0.0798662 0.118961 -0.410885 0.143314 0.161906 0.327766 0.161562 0.172867 -0.181285 -0.0636916 0.0836833 0.470565 -0.0212344 0.198018 -0.184084 0.0905058 0.388132 0.434154 -0.361415 0.0195867 0.0844522 -0.138399 -0.106398 -0.0562225 0.0821616 -0.236888 -0.303104 -0.166976 0.141753 0.133823 -0.10614 -0.232086 -0.490376 -0.436082 -0.114476 0.0989333 -0.367724 -0.43112 0.398244 0.144522 0.0429339 0.198967 -0.156314 -0.292102 -0.14572 0.231081 0.0859462 0.370418 0.177474 0.107865 -0.253986 0.383728 0.136272 0.160802 0.00373646 0.242454 -0.481439 -0.507982 0.104843 -0.241812 0.193035 -0.069968 0.0661382 0.321702 0.27713 0.118597 -0.0229775
concept:traditionalgame -0.0230616 -0.238545 -0.310436 -0.341565 0.24686 0.0574066 0.146778 -0.116147 0.230773 -0.402653 -0.046963 -0.273356 -0.537182 0.0837067 0.243256 -0.378867 -0.00718242 0.259932 -0.39626 0.0424326 0.0219489 0.428181 -0.0524052 0.0850677 -0.0134149 0.425316 -0.143202 0.398208 -0.156289 0.323461 0.0239148 0.161098 0.0746676 0.0297795 -0.182233 0.391872 -0.182889 -0.206445 0.0499216 -0.253046 0.416943 -0.0590588 0.314958 -0.282898 -0.0818296 -0.206703 0.282631 -0.49181 0.22667 0.0406967 -0.26126 -0.0154271 -0.35669 -0.00706238 -0.06779 0.128951 0.0305144 -0.298962 -0.145369 -0.324874 0.328557 -0.0860853 0.15102 -0.0246868 -0.353282 -0.350384 0.530407 -0.00610371 -0.599607 -0.285517 -0.497929 0.0303746 -0.549842 -0.426911 -0.171273 -0.400441 0.315386 0.0792435 0.227517 -0.29012 -0.0474637 -0.153436 -0.0118147 -0.0704411 -0.185068 0.212661 0.0192771 -0.365984 -0.072769 -0.0754727 0.127052 0.187238 0.132114 0.360276 0.21477 0.849633 -0.0604552 0.162928 -0.598666 0.147145
concept:recipe 0.244404 0.464432 -0.160648 -0.276691 -0.425035 0.0849694 0.421378 0.043158 -0.257022 0.378503 -0.114553 -0.209715 0.00877591 -0.311069 0.105173 -0.0935419 0.370672 -0.0347674 0.13876 -0.175626 0.229264 0.135713 0.493048 -0.322758 -0.0877903 0.208446 -0.00541953 0.32672 0.525511 -0.328269 -0.323731 0.251779 -0.511462 0.264055 -0.210558 0.477929 -0.155819 0.483822 0.123079 -0.444281 -0.215117 -0.197612 0.108388 -0.00216713 0.165326 0.378872 -0.1623 -0.450018 0.288747 0.145889 0.136605 0.0554978 0.324786 0.359956 0.200175 0.356432 0.551369 0.218164 0.28097 -0.207531 0.143569 0.182516 -0.527802 0.114472 0.451902 -0.534083 0.0900833 0.21959 -0.233605 -0.0936054 -0.446018 0.187045 -0.308758 -0.454766 0.492237 -0.429607 -0.0558411 -0.2537 0.0468572 -0.0865731 -0.283225 -0.265368 0.0841493 0.494348 0.493823 -0.382897 -0.730789 0.0735787 -0.322726 0.0356051 0.112107 0.213114 0.14715 0.226149 -0.0174932 -0.46609 0.271214 0.306147 -0.516508 -0.102995
concept:crustacean 0.200701 0.331472 0.104176 -0.357358 -0.325553 0.257215 0.293055 0.0328305 -0.100651 0.00117495 -0.152149 -0.0696377 -0.074712 -0.112719 0.514191 0.147695 0.174695 0.0498325 0.666752 -0.17495 -0.301133 -0.0500778 0.279766 -0.0574431 -0.0938245 -0.112422 0.0560173 0.448986 0.510438 -0.340574 -0.14376 0.19205 0.0356981 -0.012512 -0.33866 0.0491443 0.230733 -0.19318 0.165309 0.0530929 -0.202952 -0.376375 -0.498588 -0.300816 0.277056 0.36283 0.159586 -0.291368 0.459105 0.145511 0.265814 0.171758 0.279236 0.379035 -0.0811135 0.196375 0.366807 0.472776 0.255221 0.186242 0.107883 0.355852 -0.12902 -0.0632329 0.371747 -0.351034 -0.222669 0.114851 0.26128 -0.25804 0.0850423 0.217622 -0.184545 -0.0219679 0.480355 -0.314467 -0.015129 -0.133334 -0.0607888 0.449542 -0.239574 0.0761203 -0.254808 0.294565 0.130358 -0.0804527 0.263959 0.184187 0.148805 -0.105868 -0.0738423 0.194455 -0.201313 0.332315 -0.138603 0.403611 0.127868 -0.00635694 -0.437695 0.00524943
concept:militaryeventtype 0.274071 0.445643 0.173813 -0.314637 -0.174301 -0.144417 -0.155621 0.114106 0.0694773 0.0286468 0.271057 -0.116144 0.0135737 -0.118537 0.180277 0.0299583 0.427805 0.0323782 0.0103026 0.319016 -0.350249 -0.454141 -0.0795208 -0.29694 0.455178 0.0758811 0.227978 -0.269863 -0.156103 -0.102421 -0.191916 0.242144 0.244305 -0.161419 -0.011302 0.0691983 0.260592 -0.371604 -0.183064 -0.311264 -0.089116 0.186888 -0.129745 0.0578255 0.292453 0.0378023 -0.174207 0.144008 -0.215166 0.263732 0.452558 -0.207088 -0.0093209 0.548706 0.227152 0.301083 -0.0392643 -0.143258 -0.247765 0.181633 0.0502066 -0.0412494 -0.063295 -0.169041 -0.320569 -0.192223 0.268426 0.215104 -0.197915 0.197272 -0.0894946 0.0137089 -0.452712 -0.289639 0.040625 -0.345819 0.100067 -0.174601 -0.464316 0.18337 -0.184109 -0.314265 0.262795 0.0368763 -0.0665052 -0.120463 0.41371 -0.0527792 0.0364191 0.0868043 0.0510386 -0.38898 0.172977 0.0797032 0.310279 -0.175051 0.129025 0.0908321 -0.539818 -0.00470574
concept:color -0.013886 -0.235645 -0.264101 -0.131247 -0.182681 -0.166464 -0.340548 0.286913 0.54502 0.166685 -0.0116818 -0.0924021 0.348009 -0.0414136 -0.172522 0.0549515 0.329186 0.239977 -0.292628 -0.309639 0.0355438 0.214608 0.494847 -0.0429035 0.277272 -0.442285 -0.01236 -0.161075 -0.185648 -0.417746 0.216254 0.292266 0.206119 0.631502 0.25664 0.0530597 0.563944 0.0203902 0.327001 -0.0227546 -0.444675 0.0175777 0.131734 -0.103626 0.170236 0.56989 0.0574245 0.350024 0.263155 -0.0991035 0.131872 0.0529647 0.408192 -0.0120175 -0.412681 0.438975 0.589333 -0.254162 0.313933 -0.424421 0.259938 0.270518 -0.0273075 -0.104761 0.407329 0.181693 -0.124866 0.0331543 -0.477902 -0.34183 0.0370733 0.227022 -0.30498 0.397853 -0.107628 -0.036364 0.347946 -0.0265085 0.115446 -0.148315 0.466837 0.0397452 0.304847 0.400573 0.276977 -0.368079 0.13909 -0.170786 0.118751 0.100753 -0.0569403 0.0394509 -0.331217 -0.552842 -0.352791 0.243162 -0.215792 0.0472856 -0.17074 -0.215264
concept:race -0.10578 0.290809 -0.419513 0.170922 -0.175014 0.0369433 0.263795 -0.312768 0.283341 0.0435479 0.120263 -0.258711 -0.0739488 -0.142661 0.0358527 -0.0147968 -0.524205 -0.0871173 -0.0653383 -0.423742 -0.322813 -0.13951 0.12127 -0.166509 -0.050719 0.348963 -0.00851952 0.213492 -0.0259384 -0.0608352 0.171599 0.132015 -0.483537 0.676158 -0.0656832 -0.13332 -0.160665 0.0200157 0.364988 -0.308459 -0.417333 0.0883618 0.0235605 -0.178983 0.265213 -0.00549769 -0.101718 0.296505 -0.16252 0.142194 0.195788 0.181078 -0.162636 0.168835 0.185129 -0.234007 0.626084 -0.291129 -0.236627 0.152037 -0.0046744 -0.138523 0.0174524 -0.520508 0.130056 -0.145171 -0.0375916 -0.404794 -0.209204 0.153723 0.293678 0.118203 -0.041754 -0.0362215 0.174592 -0.215662 0.127866 -0.306054 0.0901189 -0.131937 -0.133194 -0.395025 0.201062 -0.0805039 0.180185 -0.0415063 -0.0933275 -0.0961508 0.0930828 -0.240289 -0.187374 -0.128915 0.0282368 -0.176101 0.189062 -0.0845647 -0.22937 0.264934 0.194875 0.0662862
concept:religion -0.116958 -0.618787 0.381701 0.105201 -0.0448002 0.102858 -0.131469 0.680975 0.143789 0.588694 -0.339241 -0.110635 0.431019 0.114943 -0.00347821 -0.363611 0.0152976 0.384912 0.202526 0.320929 -0.439026 0.479497 -0.279455 -0.415201 0.326216 -0.26537 0.318364 0.26563 0.132538 -0.691127 -0.143857 -0.147074 0.208586 0.405308 -0.186151 -0.0868889 0.381408 0.185969 -0.0620948 0.0124895 -0.172899 0.103659 -0.314503 -0.298231 0.243049 -0.331477 -0.122699 -0.484151 0.26628 0.186847 0.0357205 -0.0370329 0.388672 -0.0354902 0.367346 0.708371 0.0653012 0.00813624 0.0918067 0.0223036 -0.0975033 0.171138 -0.277739 -0.0544977 0.556849 0.166932 -0.00703014 0.413631 0.0810867 -0.0184887 -0.00924319 0.25198 -0.402151 -0.0218882 -0.170965 -0.0131952 -0.429404 0.395254 -0.172592 -0.27686 0.241998 -0.576277 -0.369547 0.131999 -0.0416661 0.436941 -0.318974 0.059593 -0.102021 -0.436255 0.17688 -0.325329 -0.133313 0.0947821 -0.133912 -0.0587924 0.0423992 0.18001 -0.070971 -0.570732
concept:furniture 0.116648 -0.123819 0.288979 -0.257527 0.126163 0.130894 -0.0656761 -0.284101 -0.28831 0.0116481 0.0659574 -0.57592 0.145393 0.35277 -0.14966 -0.140128 0.494787 -0.255692 0.35784 0.284047 0.199677 0.350371 0.036802 -0.441196 0.177113 -0.0820093 -0.383024 0.199422 0.243128 0.16606 0.329183 0.0071597 0.162707 -0.126098 0.259733 0.0253099 -0.15254 0.138472 -0.137074 0.155958 -0.17172 0.0426753 0.186221 -0.329139 -0.180038 0.324829 0.253217 0.056901 -0.0303762 0.0516299 -0.0562416 -0.290145 -0.045226 0.137422 -0.236371 0.0315512 -0.0215121 0.335862 0.573484 -0.293802 0.433754 0.194352 -0.260317 -0.648916 -0.18828 0.272811 0.27049 0.287892 -0.301452 -0.105176 -0.0606886 0.0026433 0.125433 -0.0908932 0.222258 0.0992457 -0.0174952 0.0387888 0.204943 -0.487848 -0.20295 -0.205139 -0.450597 -0.0655334 -0.00383154 -0.21628 -0.446827 -0.138292 -0.523821 0.486269 -0.342022 0.307342 -0.225162 -0.385259 0.242694 0.204688 -0.234748 0.17761 -0.311791 -0.0615995
concept:building 0.0156563 0.105996 0.0677392 0.0948839 0.259652 0.119146 -0.0934788 0.295199 -0.115219 0.0833913 -0.309395 -0.0429896 -0.0325817 0.0903721 -0.16563 -0.0161791 0.0594077 0.63407 0.0985863 0.130141 0.361463 0.0124047 0.00585003 0.494399 0.213594 0.204825 0.201162 0.113178 0.315397 0.266624 -0.206624 0.293066 -0.218993 -0.00964739 0.105519 -0.243697 -0.288233 0.239563 -0.100704 0.218432 0.364356 -0.52008 0.0227822 -0.348841 -0.196461 0.0288197 -0.167121 0.268883 -0.277582 -0.202956 -0.0961007 -0.0615359 -0.175918 -0.183302 0.517513 0.165289 0.120631 -0.131395 0.284028 -0.338129 -0.0304151 -0.346965 0.0598123 0.112742 0.0987732 0.0459304 0.176952 0.0258063 -0.073234 -0.0843708 -0.0434064 -0.0412517 0.213215 -0.0786066 -0.0324322 0.0859442 0.360811 0.200533 -0.459575 -0.136692 0.20776 0.191528 -0.225624 0.0479036 0.108 0.105381 0.213348 -0.016204 -0.28088 -0.229787 -0.383665 -0.0673889 0.189729 0.0287375 -0.0613136 -0.0370163 -0.182768 -0.101326 -0.0297061 -0.404301
concept:geopoliticallocation 0.00145856 -0.0401821 0.215034 0.201083 0.0347707 0.449636 0.029585 0.221223 -0.0469229 -0.242659 -0.152835 0.14398 0.0805988 -0.0843206 0.0147847 0.209526 -0.175557 0.448858 0.359719 -0.283112 -0.264349 -0.294108 0.246033 0.0565411 -0.0271422 0.0363853 -0.24884 -0.285611 -0.107735 -0.0659628 0.415823 0.329279 -0.168155 0.328747 0.0624453 -0.24209 -0.00117265 0.0931524 -0.0616621 -0.260612 0.0394067 -0.240884 -0.388614 -0.328736 0.000245015 0.115213 -0.147225 0.191918 -0.0861208 -0.105095 -0.0121513 -0.146405 0.0756539 -0.0815704 -0.0343585 0.232948 -0.112428 -0.00101423 0.0532466 0.217531 0.473969 0.169226 -0.212119 -0.24596 0.0939934 0.0186787 -0.261839 0.0487965 0.230471 0.187678 0.155192 0.0455593 -0.182016 0.269065 -0.191816 -0.0970412 -0.221489 -0.304324 -0.219786 -0.115136 0.142397 -0.201982 0.202058 0.167828 -0.0639531 -0.043441 0.0372366 -0.203269 -0.431561 0.0687815 -0.232664 0.145913 0.116243 0.0422785 -0.273482 -0.0949129 -0.0627243 0.00963442 0.23456 0.0517493
concept:personsouthamerica -0.0831386 -0.501879 -0.140193 0.0432144 0.31031 0.432812 0.0510821 0.409048 0.227702 -0.0235711 -0.145645 -0.660858 -0.321958 -0.153561 0.183029 0.0280141 -0.223485 0.00356298 0.394138 -0.218391 -0.036639 -0.299189 0.0662511 0.0650949 -0.139429 -0.0257846 -0.184908 -0.0712635 -0.367842 -0.503398 0.122984 0.387613 0.133164 0.14016 0.0438008 -0.224296 -0.0584778 0.166629 0.259087 0.37453 0.0907532 -0.0690427 -0.114161 0.0970915 -0.0223244 0.102722 -0.0993412 -0.325307 -0.0812623 0.0216136 0.393382 0.0986914 0.430534 0.156427 0.0567443 0.70068 0.356085 -0.101091 0.450424 0.345983 0.349172 -0.0364507 -0.177164 -0.0862747 0.206512 -0.0422701 -0.313826 0.101805 0.209516 0.137896 0.0310514 -0.029888 0.204847 0.196741 0.0117279 -0.145684 -0.0651888 0.212546 -0.239252 -0.270671 -0.1325 -0.0497879 -0.146308 0.0732381 0.0315207 -0.386199 0.0559712 -0.359485 0.212226 0.0657118 -0.103427 0.0564555 0.148999 0.0125353 0.522782 0.323193 -0.349824 0.209811 0.120032 0.047742
concept:beverage 0.0314241 0.25066 -0.21886 -0.230906 -0.358897 -0.182303 -0.177405 -0.000142765 -0.0522463 0.165407 -0.0734307 0.016661 0.159332 -0.320179 -0.0897951 -0.211052 0.0539274 0.199201 -0.286853 0.143826 0.37385 -0.424986 0.275234 0.039444 -0.0637009 0.0261219 0.230769 0.316153 0.237402 -0.390488 0.434178 0.357462 -0.265596 0.523628 -0.1185 0.141463 -0.181604 -0.00487204 -0.0164677 -0.0471496 -0.185271 0.127461 0.243273 0.0302273 -0.340879 0.284886 -0.467089 0.229633 0.209147 0.0481692 -0.0874136 -0.502073 0.467862 -0.0399002 -0.369426 0.324768 0.615313 -0.0443894 0.400849 0.34137 0.0851387 0.142219 -0.241443 0.0799862 0.0110881 0.349437 0.393515 0.078241 -0.266643 -0.279546 0.135164 0.27602 -0.232082 0.112606 -0.164824 -0.266286 -0.0420348 -0.367464 0.181409 -0.0968782 -0.137516 -0.270743 -0.321161 0.0151653 0.0385764 -0.411607 0.204259 0.165788 0.0351479 -0.340916 0.270492 0.238911 0.00835307 0.1242 -0.20647 -0.164419 0.32827 -0.311121 -0.134198 -0.0413169
concept:nondiseasecondition 0.373023 -0.00411745 -0.192515 0.343112 -0.381452 -0.0427969 -0.35165 0.167345 0.115974 -0.0119539 0.0316134 0.000217193 0.262323 0.142216 0.100568 -0.281955 -0.0754715 0.0696561 -0.0449404 0.0123177 -0.244496 0.0036652 -0.192826 -0.312684 0.0883648 0.11763 0.210951 -0.0927334 0.392787 -0.320055 -0.352595 -0.158731 0.200179 0.361662 0.041811 0.0802171 -0.305079 -0.251293 0.164814 -0.123382 -0.163331 -0.0984875 -0.204435 -0.637604 0.400895 0.642333 0.175398 -0.268998 0.0324975 0.438186 0.0146248 -0.247885 -0.156862 0.210345 0.27919 -0.198638 0.26603 0.360762 0.218407 -0.244574 0.116112 -0.0643863 -0.298362 -0.334947 -0.11175 -0.375602 0.111572 -0.320036 -0.0692571 0.461584 -0.268557 -0.0388196 -0.0787107 0.404626 0.307099 0.0840394 0.351599 -0.332144 0.0538392 -0.0393386 -0.149578 0.305077 -0.311815 -0.372202 -0.0479077 -0.0584093 -0.308668 -0.254561 0.089505 0.302396 -0.186485 -0.0854961 0.179864 -0.166163 0.117455 0.569137 -0.0811939 0.218048 -0.320432 0.118307
concept:school -0.0754199 0.198112 -0.102439 0.131263 0.217328 0.283881 -0.118582 0.568393 0.105281 -0.126687 -0.136015 0.0402656 0.221485 0.120153 -0.102202 0.20065 -0.197687 0.123094 0.060888 0.0419681 0.123419 -0.0711797 0.167843 -0.130981 0.130229 0.506582 -0.149035 -0.143858 0.146608 0.202865 0.306394 0.606006 -0.28114 -0.0853804 0.0825248 -0.225638 -0.253133 0.27153 0.0230162 -0.211159 -0.0137483 0.150119 -0.240888 -0.364194 -0.254769 0.0769288 0.280386 -0.0508727 -0.198058 -0.0378799 -0.0371086 0.0625095 -0.0840447 0.00340907 0.282299 0.436421 -0.0492234 -0.0242601 -0.205616 0.22224 -0.145956 -0.110099 -0.151099 -0.0691161 -0.00125558 -0.118756 0.0867951 -0.103618 0.153231 -0.0377649 0.223054 0.178745 -0.185464 -0.0106665 0.461044 -0.00525936 -0.310396 -0.126403 -0.386825 0.219469 0.127303 0.172884 0.213125 -0.168709 -0.0943527 0.162403 -0.3705 -0.271794 0.219673 -0.20492 0.10754 -0.176649 -0.154047 0.123213 -0.202788 0.499163 0.130064 0.311373 -0.133601 0.0615584
concept:politicalparty 0.0140504 0.141765 -0.273258 -0.0465511 -0.28235 0.144387 0.175233 -0.137551 0.129013 -0.14441 -0.427148 -0.324899 -0.337052 0.23954 -0.0969927 0.126443 -0.329079 0.285653 -0.0429248 0.177481 0.100877 0.180953 0.00130252 -0.240325 0.0250079 -0.349292 -0.255895 0.202905 0.50487 -0.764688 0.258485 0.276724 0.363082 -0.0535323 0.113288 -0.0998896 0.238072 -0.541475 0.115422 0.00397654 -0.397821 0.144129 -0.265294 0.18494 -0.22587 -0.0291324 -0.242694 -0.0682713 -0.0361906 -0.165007 -0.00723237 0.0310641 -0.0387519 0.0607962 -0.326074 0.0032596 -0.115506 -0.202604 -0.231508 -0.200391 0.368207 -0.121131 -0.0258481 -0.146529 0.00413517 -0.151587 0.146478 0.199739 0.307709 0.183275 0.0507052 0.156573 -0.128121 -0.0845408 -0.250117 -0.0935946 -0.121019 -0.00198659 -0.278625 -0.019499 0.121238 -0.573921 0.390628 0.118815 -0.107267 0.182857 -0.263245 -0.125437 -0.564968 0.203967 0.28324 -0.22212 -0.104797 0.0299054 -0.180273 0.103174 0.17329 -0.0393852 0.167515 -0.0725886
concept:politicsbill 0.229744 0.0107492 -0.349864 0.181167 0.133929 -0.364885 0.387559 -0.350438 -0.190203 0.501828 0.300261 -0.414432 -0.00427656 0.687734 0.250744 0.639815 -0.237552 -0.214161 -0.364774 -0.288162 -0.0543043 -0.043683 0.152489 -0.321302 0.454026 0.220241 -0.479585 -0.241752 -0.0493798 -0.551844 0.045022 -0.431541 -0.275719 -0.0208723 0.286438 0.28696 0.38782 -0.0097276 -0.0323757 0.429144 -0.0409119 -0.329141 -0.493846 0.216278 0.0334036 0.134189 -0.587571 -0.391822 -0.231496 0.60589 0.126254 -0.515259 -0.426042 -0.0160945 -0.0485584 -0.0831989 -0.143956 0.115237 -0.253535 0.138672 0.00107436 0.0126194 -0.201206 -0.0304022 0.551628 -0.154225 -0.0868974 -0.596783 -0.476538 -0.244212 0.392186 0.280635 -0.618785 -0.577804 0.0805231 0.0472941 -0.0246228 -0.224235 -0.393023 -0.0711122 -0.359874 -0.0662317 0.221363 0.629841 0.00904268 -0.402567 0.168871 0.237883 -0.0974943 0.47559 0.273019 -0.320438 0.238665 -0.0650078 0.469621 -0.0386063 0.396576 0.162197 -0.331556 -0.68259
concept:zoo 0.115173 0.191274 0.181527 -0.187195 0.0348755 0.329386 -0.180743 0.316049 -0.0908843 0.0502004 -0.209493 -0.58671 -0.460161 0.201739 0.753169 0.477149 0.106718 0.280399 0.0378108 -0.0965304 0.0746905 -0.0562778 -0.0450244 0.338438 -0.140549 -0.102252 0.243994 0.124578 0.320173 0.0415926 -0.0805437 0.128333 -0.0013363 0.0216123 0.313226 -0.044052 0.0814999 0.343098 -0.110319 -0.0318268 0.260831 -0.283607 0.0993669 0.144018 0.236432 0.282793 -0.176199 -0.115921 0.0570361 0.233865 0.132622 0.145999 0.0752514 0.160289 -0.0511888 -0.104391 0.208616 0.0281682 -0.514278 -0.172277 0.0291083 -0.193487 -0.347432 -0.494768 0.138897 -0.198071 -0.121154 -0.236844 0.289673 0.126302 0.407976 0.105053 -0.0300871 -0.0433861 0.0982191 -0.123931 0.310035 -0.149854 -0.0120447 -0.157084 0.132575 -0.0477069 -0.22408 0.373365 0.365045 0.0254599 0.349761 -0.269398 -0.19402 -0.0518816 -0.173042 0.20805 -0.217483 0.195839 -0.155161 -0.0476743 0.101019 -0.295364 -0.0356291 -0.240122
concept:artery 0.101472 -0.292522 0.134847 -0.425481 -0.341149 -0.191607 0.0638342 0.27646 -0.182284 0.291841 0.176009 0.102379 0.109352 0.155995 -0.393319 -0.253714 -0.240484 0.534058 -0.114029 -0.580343 0.303329 0.136869 0.153732 0.198325 0.475901 -0.209737 0.0764923 -0.341716 0.345372 0.20731 -0.12966 0.297032 0.135262 0.385579 -0.0909077 -0.0588055 0.0212664 -0.0763309 0.355931 0.120952 -0.209569 0.120616 -0.351979 0.452351 -0.283324 0.557235 0.287823 -0.429104 -0.0448615 0.0863776 0.0521451 -0.0485535 -0.189691 0.418204 0.201833 -0.269068 -0.333293 0.238158 0.13623 -0.288328 0.298652 -0.3206 0.0333454 -0.0675892 0.380876 -0.135857 0.0254953 -0.0705091 -0.31988 -0.265283 -0.372089 0.314194 0.150707 0.0541222 -0.358257 -0.244819 0.154827 0.176422 -0.340784 0.148275 -0.217028 0.104607 0.169203 -0.0119117 -0.466538 -0.207276 0.103272 -0.3525 -0.0257575 0.0947027 -0.33263 0.322475 0.249278 -0.280797 1.08403e-05 0.483386 0.254796 -0.264092 -0.423794 -0.131472
concept:recordlabel -0.280147 0.063058 -0.479674 0.027482 -0.277355 0.139418 -0.288289 0.0707544 -0.259605 -0.0844552 0.276291 0.141882 -0.0494417 0.285544 -0.138403 0.253944 -0.155282 0.0806844 -0.130953 0.198869 0.0670075 0.202534 0.163079 -0.12754 -0.012443 -0.143376 0.073832 -0.273388 0.524355 0.0676717 0.334717 -0.268095 0.114647 -0.0960575 0.276386 0.108907 0.0988522 0.181279 -0.0599941 0.0362595 -0.58403 -0.0712105 -0.24185 -0.0606669 0.234988 -0.0137825 0.120019 0.190499 -0.0937314 0.193764 -0.182271 -0.0252038 0.265034 -0.145983 0.292621 -0.0358807 0.0131775 0.0710145 -0.0120875 0.325552 -0.19997 -0.0383846 0.118054 -0.123852 0.118602 0.190999 0.137097 0.163812 -0.0360248 -0.0539568 -0.415656 0.168452 -0.663183 0.140951 0.556974 -0.0803732 -0.225781 0.593944 -0.21932 0.101704 0.201376 0.353221 0.0759365 0.106596 -0.326806 -0.146606 -0.138076 -0.0385003 0.304607 0.0497514 0.215709 0.515395 -0.0487676 0.269385 -0.092601 -0.249335 -0.540929 0.203257 -0.221778 0.0614338
concept:cave -0.0389615 -0.146134 0.0937419 0.10246 -0.0334146 0.00808016 -0.0222782 0.521929 0.096144 -0.0927224 -0.135505 -0.109088 0.111044 0.445784 0.633304 0.381678 -0.24916 -0.00343269 0.227435 -0.575616 -0.248504 -0.138154 -0.0506199 0.174985 0.688943 -0.118886 0.333472 0.447862 0.509277 0.00875603 -0.272475 0.120287 -0.0210111 -0.106728 -0.110786 -0.0118441 -0.0399905 -0.0802619 -0.113624 0.0792719 -0.0779803 -0.282276 -0.333848 -0.1615 0.274282 0.445485 0.375047 -0.1277 0.067545 0.119298 0.155193 -0.225816 -0.0845006 -0.00294392 -0.196903 -0.387747 0.195259 0.0667897 -0.0471479 -0.255818 0.250994 -0.346427 -0.185427 0.0530165 -0.100461 0.27838 -0.274142 0.177088 -0.00469855 -0.337305 -0.539278 0.381152 -0.506584 -0.17673 -0.138153 0.0698735 -0.0703683 0.214738 -0.407101 0.167812 -0.0498856 0.211123 -0.130996 0.32593 -0.511971 0.112658 0.379825 -0.271911 -0.124468 -0.193606 -0.392396 0.137609 0.323273 -0.024005 -0.119395 0.0373716 -0.203309 -0.259348 -0.0720837 -0.097879
concept:visualartmovement -0.0379335 -0.466708 0.435407 -0.298096 -0.453062 -0.283502 -0.191407 0.472607 -0.322568 0.5472 0.0287181 -0.100474 0.586929 -0.016531 0.0448405 -0.55974 0.531728 0.176177 0.356847 -0.021375 -0.0302879 -0.0587534 -0.302359 -0.0587292 -0.125107 -0.325317 0.399771 0.229669 -0.293769 -0.552438 0.279926 -0.0617745 -0.165822 -0.319618 0.456852 0.235458 0.707713 -0.180272 0.488916 0.280324 -0.229721 0.306591 -0.426965 0.464353 0.00189848 0.24057 0.0288061 -0.381326 0.35513 0.0437248 0.573773 -0.203548 0.43507 -0.205089 0.388054 0.363344 -0.0869726 -0.05645 0.369356 -0.650485 0.0435009 0.0728742 0.140797 -0.446987 -0.459241 0.258006 -0.340379 0.245 -0.138722 0.214961 0.310189 0.00314269 0.277767 -0.205611 -0.441591 -0.420274 -0.0394528 -0.0826623 -0.324503 -0.211067 0.203753 -0.659003 -0.0720412 -0.0336666 -0.290608 0.230737 0.114141 0.0112005 -0.541698 0.444873 0.27214 -0.0193237 0.356242 0.251784 0.379521 0.247152 0.17248 0.273734 -0.0560367 -0.278526
concept:musicartist 0.379719 0.034861 0.225352 0.154501 -0.250533 -0.18896 -0.487949 0.285443 -0.208508 0.325415 -0.14054 -0.363262 0.0580117 -0.423015 -0.102599 0.384853 -0.467189 -0.256489 -0.388118 -0.324939 0.00163825 0.0165336 -0.145467 0.100916 0.0488986 -0.403602 -0.138537 0.0661855 0.14968 -0.179097 0.163043 0.178895 0.11331 -0.239974 0.231818 0.213407 0.139501 -0.212414 -0.1907 -0.108541 -0.0300487 0.327184 0.0374049 -0.108951 0.238494 0.0849965 0.0993772 -0.285025 -0.179335 -0.318299 -0.300172 0.223191 -0.155579 -0.0111473 0.314713 -0.369294 -0.151274 -0.236997 -0.238767 0.0902507 -0.0602995 -0.06651 0.0352417 0.297278 0.144999 0.0342789 0.259583 0.422199 -0.24758 -0.0573459 -0.186568 -0.136813 -0.669525 0.346088 0.383369 0.279695 -0.322315 -0.141433 0.02508 0.331217 -0.105784 0.0162639 0.010204 -0.27928 -0.102418 0.139132 0.195709 -0.0346177 0.385935 -0.324345 0.249269 0.345484 0.0637918 0.21106 0.174768 -0.432053 -0.0130645 -0.243741 0.107109 -0.251555
concept:olympics 0.0387435 0.234933 -0.0493663 -0.0117982 -0.126521 0.25139 0.168536 0.18934 0.00618098 -0.104743 -0.368389 -0.230279 0.0158889 0.361783 -0.108326 0.0761332 0.274564 -0.187747 0.0540101 0.0733869 -0.233499 0.120214 0.175268 -0.106712 -0.0832969 -0.305386 0.150754 0.098964 0.526283 -0.36645 0.305131 -0.0386593 0.0311839 0.318688 -0.0428652 0.0184881 -0.141011 -0.116531 -0.0972222 -0.24747 -0.125132 -0.324646 -0.117926 -0.144691 0.145252 -0.130685 -0.0348425 0.197293 -0.0237218 0.218659 0.252695 -0.157303 -0.100882 -0.288961 0.57598 0.335728 0.566631 0.365675 -0.245229 0.390301 -0.219309 0.385758 -0.0479595 -0.263725 -0.265215 -0.210467 0.191725 -0.147047 0.00257116 0.194778 0.0657163 0.110733 -0.0887844 0.326594 -0.188571 -0.141125 0.148887 -0.124988 -0.0225556 -0.143143 -0.282853 -0.213124 0.183977 0.10401 -0.182289 0.00666702 -0.0977164 -0.318678 0.010679 0.342507 -0.131257 0.165193 0.185143 -0.126013 0.342383 0.510019 -0.22868 0.340431 -0.204239 -0.00409632
concept:visualizableattribute 0.20145 -0.508626 -0.251943 -0.386212 -0.107542 -0.223428 -0.0550727 0.103981 0.28573 0.13289 -0.138255 -0.239326 0.372765 0.0446322 -0.528537 0.0834072 0.335353 0.369905 -0.472522 -0.358721 0.165874 0.240439 0.458387 0.205969 0.0269273 -0.62294 0.0262628 0.0529357 -0.521722 -0.0326841 -0.0467762 0.449655 0.290358 0.648347 -0.0861519 0.102833 0.50284 -0.261167 0.479378 0.105734 -0.328877 0.0832132 0.132352 0.0149824 0.0711329 0.351018 0.165366 0.344646 0.181868 -0.237424 -0.0646398 -0.148672 0.300045 0.141104 -0.467717 0.28309 0.504039 -0.334875 0.331628 -0.488306 0.417181 0.13772 0.218016 -0.173072 0.279785 0.292345 -0.120768 0.100585 -0.568542 -0.569544 -0.159173 0.118363 -0.35229 -0.226306 -0.0808711 -0.197643 0.420973 -0.0574457 0.0629218 -0.105771 0.137647 -0.0105475 0.41823 0.016308 0.29708 -0.341087 0.251684 -0.334571 0.0799113 0.040026 -0.202689 0.0234987 -0.241924 -0.542038 -0.178862 0.441579 -0.320183 -0.0283113 -0.195908 -0.249534
concept:sportsteamposition -0.238532 -0.580038 0.0850201 -0.400957 0.244704 0.296341 -0.321228 0.265683 0.175531 0.12701 0.0934856 -0.362175 0.139373 0.461423 0.274379 -0.174375 -0.394808 0.150065 -0.277612 0.318109 0.292847 -0.417363 0.181372 -0.0076819 0.441001 -0.121617 -0.455082 -0.0198467 -0.18731 -0.497602 -0.536691 -0.146034 0.473875 0.200397 -0.529322 0.593263 -0.349657 0.206779 0.0393147 0.329896 -0.0474847 -0.179023 -0.073445 -0.0845277 -0.09938 -0.148416 -0.14196 0.234824 0.00149828 -0.246099 0.284573 0.246165 0.205272 0.436799 -0.327489 0.133972 0.261027 0.272697 0.209372 -0.773958 0.106329 -0.0778194 -0.200814 0.0801939 -0.102912 -0.460987 -0.0145078 0.335828 0.101081 -0.0057681 0.0592906 -0.00533429 0.063489 -0.263542 0.417015 -0.271102 0.271218 -0.305761 -0.238661 0.405766 0.00460783 -0.354988 0.558277 0.151531 -0.201844 -0.033817 -0.283401 0.143184 0.386641 0.138559 0.320024 -0.0392748 0.518574 -0.32847 0.550504 0.457357 0.310216 0.21827 0.27203 -0.797769
concept:boardgame 0.00984825 -0.376468 -0.0895754 -0.228922 0.0052167 -0.0139304 -0.0641098 -0.0741836 0.281421 -0.103566 -0.214938 -0.164997 -0.236143 0.226271 0.287514 0.0715037 0.199349 -0.186486 -0.10599 -0.0933796 -0.0383792 0.135007 -0.123751 0.221187 -0.31221 0.102408 -0.0310983 0.110488 0.57971 -0.188567 -0.0377507 0.0891815 -0.00453559 0.237774 -0.252994 0.108443 -0.180111 -0.0963458 -0.0861228 -0.176781 0.295163 -0.0107412 0.24466 -0.0436769 0.229829 -0.12551 0.128873 -0.252868 4.56444e-05 0.0575541 -0.099638 0.219219 -0.16838 -0.0154226 -0.0344495 0.326878 -0.025605 -0.145392 -0.310889 -0.228089 0.165926 0.139577 -0.00531785 -0.06498 -0.290892 -0.326063 0.324757 0.117524 -0.335077 -0.00849907 -0.525227 0.286926 -0.345912 -0.168832 0.0578937 -0.342588 0.212155 0.0116691 0.137135 -0.296075 -0.214243 -0.149489 0.294914 -0.024973 -0.0921014 -0.0438737 0.00725128 -0.295568 0.233658 0.067297 0.363336 0.193504 0.148334 0.238638 0.333469 0.632533 -0.185 0.13572 -0.158258 -0.335017
concept:person -0.664187 -0.0778057 -0.00958955 0.493946 -0.129166 0.197733 0.00120029 -0.0253163 -0.0729198 -0.171438 -0.204639 0.102194 0.153806 -0.495922 0.0424945 0.00988714 -0.0266098 -0.143776 0.178551 0.0877112 -0.195714 0.00124331 0.165788 0.333248 -0.104616 -0.0638697 -0.397777 -0.466062 -0.0639534 -0.426133 -0.167251 -0.302549 -0.0112205 -0.0558653 0.208664 0.120232 0.160458 0.077019 -0.179983 -0.109454 0.282513 0.463153 0.222254 0.321152 -0.503079 -0.586939 0.227258 0.0893704 -0.154868 0.146071 -0.00436297 0.102031 -0.136938 0.121418 -0.0467101 -0.101245 0.0732347 -0.100435 0.0822025 0.210961 -0.0670613 -0.199554 -0.164776 0.630003 -0.0438446 0.145745 -0.202658 -0.0536005 0.105885 -0.294507 0.0317053 -0.369477 0.0536686 0.129341 -0.0416554 0.917576 0.0114121 0.0692431 0.0597451 0.42801 -0.251432 0.196762 -0.267753 -0.165359 -0.135532 0.0116046 -0.345328 -0.149207 -0.197868 -0.0432095 0.0593339 -0.0993173 -0.640584 -0.036392 0.0646792 -0.0191325 0.0501234 -0.0765152 -0.27791 0.130045
concept:actor -0.156699 -0.303256 0.0436734 0.0584469 0.192782 0.0772585 -0.171352 -0.254953 -0.182433 0.468196 -0.186629 0.325706 0.0731087 -0.253294 0.286953 0.144478 -0.111024 -0.093599 0.237479 -0.0994884 -0.0499891 -0.515148 0.107306 0.165628 -0.0349747 -0.169288 -0.257819 -0.242817 0.0555742 -0.26353 -0.016007 -0.282116 -0.0393775 0.0655914 0.11007 -0.055964 0.224028 0.10435 0.814128 -0.140242 0.0773796 0.165254 0.268452 0.232791 -0.165823 0.0224979 0.24855 0.1465 -0.2124 0.205328 0.0841114 -0.0411553 -0.254904 -0.0551107 0.110009 -0.00970394 -0.0593413 -0.196918 0.313956 0.331086 -0.477634 -0.0187652 -0.24632 0.154672 0.043492 -0.117552 -0.128913 0.159768 0.111203 -0.14826 0.13839 -0.206587 0.0501192 0.186854 0.120183 0.031997 0.242738 0.0339684 -0.0235652 0.13502 -0.339154 0.172787 -0.0884513 -0.273523 -0.104622 0.46726 -0.0787459 -0.293335 -0.190564 -0.144638 0.147843 -0.131075 -0.279125 -0.22426 -0.112346 0.0108262 -0.368101 -0.0131243 -0.341386 0.232719
concept:perceptionaction 0.164131 0.0342479 0.196744 -0.0137539 0.133296 0.331725 -0.11655 -0.345899 -0.0713749 0.309233 0.140497 0.191303 0.0586686 0.296109 0.706863 -0.0744019 -0.0673097 0.383128 -0.201764 -0.145001 0.581168 0.200979 0.00189561 -0.142795 0.183589 -0.304029 -0.356385 -0.147993 0.183595 -0.592288 0.0996686 -0.0635904 0.517584 -0.315247 0.119943 -0.374904 0.0596679 0.0876091 0.22928 -0.298918 0.0494535 0.138864 0.0642835 -0.203091 0.481062 0.0744175 -0.339696 -0.25118 -0.114896 0.526315 0.810136 0.0676114 0.481022 0.515834 -0.350635 -0.259231 0.117129 0.07181 -0.214781 -0.641672 -0.430687 0.198099 -0.0626907 -0.339732 0.159223 0.143711 -0.272204 -0.565098 0.223027 -0.148871 -0.443836 0.274427 -0.417148 -0.239044 0.237585 0.230114 -0.170909 -0.204951 0.112691 0.122729 0.181909 -0.185679 -0.601192 -0.22877 0.0651798 -0.607019 0.172967 -0.129852 -0.215208 -0.0100924 -0.488519 -0.252881 0.439525 0.101949 -0.268199 -0.0683563 -0.152454 0.307996 -0.13867 -0.549883
concept:dayofweek -0.0282179 0.110043 -0.277958 0.229294 0.109229 0.0681835 -0.200917 -0.133312 0.190245 -0.0344609 0.0123388 0.218887 0.429307 0.220794 0.799754 -0.24605 0.160171 0.00849865 -4.92349e-05 -0.232725 -0.00616304 0.23172 0.228395 -0.216432 0.0970648 -0.379837 0.0568301 0.178825 0.449821 -0.0110808 0.353619 -0.0520958 0.000653536 0.249299 -0.173437 -0.0131587 0.438532 -0.265984 0.293545 0.0233264 0.0655707 0.241793 0.246671 -0.314965 0.167562 0.530545 -0.204597 0.138615 0.35825 0.0586917 0.430493 0.130362 0.243352 -0.056628 0.33441 -0.101268 0.353596 -0.0501095 -0.245167 0.234611 0.605294 0.286016 -0.282616 -0.129876 -0.172964 -0.261307 -0.263877 -0.300113 0.160171 0.315857 0.120929 -0.0205805 -0.16285 -0.265522 -0.146576 0.149096 0.0929569 0.199387 -0.403424 0.0337849 0.111631 0.143691 -0.153495 -0.47675 -0.0229316 0.286366 0.20043 -0.418778 0.297458 0.524059 -0.221959 0.163747 0.01994 0.469922 -0.241778 -0.0855134 0.328085 0.362693 0.0104527 0.0151803
concept:householditem 0.045818 -0.359913 0.304454 -0.379345 0.265153 0.193718 0.140966 -0.402859 -0.0841304 0.0197925 0.217016 -0.253458 0.044418 0.421045 -0.464364 -0.233893 0.141546 -0.51644 0.3817 0.0174557 0.114369 0.421731 0.05261 -0.629207 0.0915074 -0.246981 0.139142 0.217939 0.0894997 0.420113 0.438505 -0.137204 0.0431321 -0.106694 0.101987 0.120921 -0.445701 0.0242078 -0.382532 0.128875 -0.241316 -0.0223999 0.606063 -0.479381 -0.349224 0.51768 0.257028 0.218131 0.0935218 0.0102787 0.15552 -0.367631 0.0254888 0.138351 -0.773569 0.134827 0.101476 0.104033 0.489751 -0.162253 0.0896148 0.254936 -0.44901 0.0428776 -0.417848 0.414548 0.199796 0.143234 -0.470487 -0.329532 -0.206696 0.109996 -0.138707 -0.00673775 0.133761 0.170188 -0.0829428 0.322364 0.262232 -0.113375 0.0570132 -0.244938 -0.452293 0.0874979 0.123227 -0.2726 -0.335887 0.141813 -0.307115 0.409065 -0.0903041 0.604039 -0.247276 -0.357036 0.692191 0.354472 -0.158925 0.379478 0.035508 -0.114473
concept:fungus 0.127096 -0.0347807 -0.291147 -0.153629 -0.277958 0.329792 0.00938139 0.4439 -0.0352782 0.305191 -0.0924121 -0.0287371 0.406034 -0.118005 -0.155806 0.427602 0.502043 0.159786 0.451406 0.205578 -0.0287829 -0.0825427 0.0134732 0.415529 -0.0290618 -0.255554 0.251045 0.293732 0.0510829 -0.279789 -0.19258 -0.0485058 -0.125812 0.149381 -0.0374816 -0.301237 -0.376581 -0.329637 -0.125655 0.112045 -0.255326 0.287508 -0.52703 -0.0664682 -0.0930674 0.321201 0.313009 -0.269481 0.179752 0.290604 0.303996 -0.26991 0.415276 -0.0799507 -0.426271 0.186695 0.479416 0.583505 0.0254173 0.311964 0.0743823 0.034965 0.22964 -0.677086 -0.0149941 0.281368 0.010221 0.46655 -0.0279886 0.0627046 0.198521 0.407856 -0.437987 0.0164915 0.316942 -0.413071 -0.4726 0.258854 0.211049 -0.420966 0.177423 -0.0450887 -0.0695078 0.56062 -0.274432 0.0707938 0.233798 -0.191083 0.0539368 -0.0733432 -0.164034 -0.286861 0.0312229 -0.202459 0.190513 0.804431 -0.174599 0.00179725 -0.188589 -0.143327
concept:bird 0.236161 -0.0360941 0.105398 -0.271132 -0.153219 -0.0253869 -0.12615 -0.10694 -0.103017 0.0452246 -0.159534 -0.608689 -0.0617846 -0.135144 0.386428 0.12538 0.300838 -0.211853 -0.420687 -0.278668 -0.30134 0.378624 0.604422 0.193811 -0.155337 -0.113446 -0.176888 -0.41459 0.266874 -0.344524 0.0517729 0.269084 0.413427 -0.51973 0.238634 -0.0570174 0.614182 -0.172007 0.00318734 -0.39371 -0.66078 -0.556545 -0.577682 -0.0524373 -0.103555 0.231061 0.228589 -0.00472134 -0.488875 0.145954 0.00573715 0.011422 0.154022 -0.182026 -0.42196 -0.264582 0.5176 -0.237872 0.275734 -0.124283 0.430622 -0.477561 0.0101398 -0.141366 0.312584 -0.397493 -0.198143 -0.113765 0.224732 -0.106096 0.197938 0.1459 -0.239084 0.0827061 -0.0902062 -0.0415721 0.142969 -0.116936 0.25135 -0.520338 -0.424808 0.24794 0.153209 -0.103641 -0.139203 -0.336534 0.398709 0.0919791 -0.25375 -0.0423731 -0.201244 -0.0330632 -0.0237989 0.352645 -0.160056 0.608317 0.296096 0.0411143 0.0102348 0.254577
concept:fruit 0.00538348 0.234503 -0.230895 -0.34719 -0.416508 0.202201 0.53532 0.341775 -0.194129 0.156255 0.202839 0.238596 0.268218 -0.00859521 -0.0370983 -0.160506 0.109459 0.0679693 -0.154742 0.368448 0.223389 -0.318412 0.217003 0.467557 -0.0575033 0.32487 0.158819 0.200771 0.153686 -0.451079 -0.0804567 0.526429 0.0573709 0.251902 -0.469813 -0.165698 -0.293024 0.19951 -0.181135 -0.14167 -0.161719 0.255805 -0.251727 0.374115 -0.200928 0.44916 0.119353 0.272428 0.363123 -0.391887 0.137764 -0.55062 0.373897 -0.459787 -0.15391 0.261105 0.330392 0.326941 0.204693 0.312053 0.105504 0.173757 -0.248132 -0.0861216 0.0982464 -0.427642 0.434614 0.179282 -0.179788 -0.0547987 0.149179 0.335288 0.14417 0.130178 0.0459303 -0.132234 0.16925 -0.332338 0.124998 -0.321513 -0.537518 0.0910791 -0.231874 -0.244571 0.162979 -0.416639 0.0678757 0.0367109 -0.0813352 -0.123024 0.250204 0.125514 -0.146882 0.21819 -0.234916 -0.0888114 0.0900294 -0.334814 0.212434 -0.140761
concept:amphibian 0.345613 0.14249 0.0135928 -0.217529 -0.114376 0.295834 0.0918554 0.29626 -0.115773 -0.163664 -0.235629 -0.295345 -0.350312 -0.0529896 0.428289 0.214175 -0.524525 0.148649 0.0275379 -0.345123 -0.124507 0.111365 0.513992 0.113291 -0.176457 -0.0778723 0.206684 0.0615626 0.441334 -0.253504 0.401636 0.0653365 0.502055 0.179647 0.12061 -0.159135 0.401393 -0.114087 -0.100226 -0.341259 -0.252799 -0.607247 -0.0912119 0.327012 0.334691 0.169324 0.0383772 -0.137754 0.18528 -0.128198 0.141904 0.133969 0.0969203 0.289189 -0.296165 0.339967 0.0914097 -0.0507477 -0.0236785 -0.405948 0.123622 0.223048 -0.0946472 -0.218748 0.337023 0.265191 -0.238814 -0.00404466 0.391418 -0.275205 -0.0609772 -0.099422 -0.222029 0.0129256 0.410794 -0.43381 0.253616 0.066816 0.0287655 -0.382754 0.0840847 0.234019 -0.343329 0.143448 -0.181502 0.110812 0.100564 -0.60552 0.0659468 0.0299871 -0.252642 -0.0632062 -0.0681203 0.064239 0.105866 0.397203 -0.0858982 -0.0741335 -0.469759 0.380792
concept:victim -0.0360336 -0.279667 -0.196123 -0.0177298 -0.231595 0.309136 -0.0371691 0.018074 -0.0446849 0.127605 -0.151049 -0.239718 0.0587827 0.108985 0.510633 0.0739195 0.102089 0.341057 0.452433 0.321649 8.9115e-05 0.160428 0.578804 0.0506753 0.226195 0.055917 -0.0804176 0.0708092 -0.0379422 -0.314911 0.0470911 0.0236804 0.258337 0.376512 0.108329 0.18527 0.0551462 0.231617 0.0312729 -0.477282 0.206999 -0.191538 0.11296 0.18899 -0.115281 0.0216974 0.105889 -0.234174 -0.0820124 0.71182 0.333618 -0.150268 -0.237485 0.087568 -0.0307717 0.115528 0.0609785 -0.034646 -0.424448 0.177254 0.285079 0.167682 -0.317744 -0.130704 0.227026 -0.082499 -0.0220476 -0.255912 0.186614 0.376423 -0.374966 0.0344481 -0.0267174 0.127365 0.0508435 -0.268951 -0.093468 0.11912 0.384788 -0.247177 0.0933127 -0.00336029 -0.0259264 -0.0491469 -0.0514723 -0.278364 -0.541526 -0.373986 -0.243731 0.107234 -0.120412 -0.04726 -0.0095075 -0.0836143 -0.00789367 0.0284843 0.159012 0.208036 -0.703964 -0.16648
concept:musicsong -0.0031371 0.257422 -0.44045 0.274107 0.180479 -0.380802 -0.575744 0.1246 0.0957198 0.216074 -0.140381 -0.00566731 -0.436457 -0.300295 0.414856 -0.0264677 0.493375 -0.295014 0.164278 0.119896 0.0344127 0.281827 0.154793 -0.147972 -0.168891 -0.182682 0.202799 -0.148983 -0.417648 -0.0119145 0.302457 0.00990162 -0.231379 0.125812 -0.0142939 0.266566 -0.220677 -0.211474 0.0800525 0.289343 0.114419 0.0505742 0.356235 0.397226 0.37614 -0.0977499 0.179263 -0.444414 0.0368832 -0.345088 0.125527 -0.180441 0.0495554 0.0283825 0.264381 -0.381214 -0.217262 0.00562829 -0.148981 -0.275907 0.237759 -0.0921989 0.118398 0.0264898 0.362081 0.207398 -0.024508 -0.323272 -0.311912 -0.0922617 -0.520327 0.277515 -0.80104 -0.0818711 -0.258852 0.0178945 -0.0655192 -0.0994893 0.0416152 0.0540934 -0.184761 -0.0280594 -0.158679 -0.217632 0.360074 -0.579515 0.0842602 -0.437249 -0.297932 -0.256099 0.440031 0.290546 0.267806 -0.0893339 -0.240878 -0.145039 -0.0919898 0.195741 -0.213154 -0.438745
